727 100
BOS -0.10987 -0.040217 0.1618 -0.20104 -0.011527 0.20527 -0.24314 -0.014951 0.070855 -0.17644 -0.038451 0.022276 -0.19832 -0.092719 -0.02362 -0.086039 -0.089142 0.1664 0.10558 -0.13059 -0.21968 0.10702 -7.2716e-05 0.097152 -0.073488 -0.061954 0.077575 -0.28856 -0.1975 -0.36947 0.074771 0.054426 0.068302 0.13138 0.019537 0.13513 -0.11341 0.46801 0.022296 0.091084 0.16391 0.072899 0.21864 -0.03723 0.38961 -0.061504 0.30134 0.17556 0.038599 0.017275 0.18013 0.013256 -0.14465 0.19643 -0.03934 -0.0070036 0.12188 -0.13269 0.10877 -0.24051 -0.14686 0.078434 0.060593 0.1309 -0.066506 -0.013691 -0.27293 0.12964 -0.21896 -0.1839 0.020803 0.38044 -0.03776 0.01236 0.25061 0.17439 -0.04407 0.12329 0.24174 0.24606 0.040701 0.19134 0.015648 -0.0021469 0.29269 -0.13269 -0.016628 -0.39187 -0.30645 0.13882 0.16184 0.099819 0.06895 0.014601 -0.069963 0.01576 0.11287 -0.039168 -0.10573 -0.13387 
</s> -0.11908 -0.00020345 0.23133 -0.18848 0.12315 0.2181 -0.21841 0.045812 0.061865 -0.12482 0.023944 0.024912 -0.12469 0.03422 -0.088352 -0.095982 -0.10727 0.17127 0.026228 -0.032869 -0.20419 0.12485 -0.040524 0.10833 -0.11242 -0.034354 -0.16294 -0.006315 -0.17698 -0.36332 -0.1277 0.11726 0.080699 -0.0099722 0.045859 0.070718 -0.10423 0.38053 0.03381 0.032767 -0.024059 0.27452 0.21073 -0.033009 0.34356 -0.015427 0.30557 0.12498 -0.091466 0.021491 0.2244 0.010597 -0.093262 0.18135 -0.01942 0.095757 -0.043861 -0.14353 0.16859 -0.1508 -0.081193 0.12118 0.070318 0.21767 0.069023 -0.018336 -0.33173 -0.018748 -0.36606 -0.19178 0.083416 0.3189 0.03043 -0.0077024 0.16699 -0.052782 0.021518 0.0026202 0.19636 0.37585 -0.12179 0.13269 0.081989 -0.023052 0.14431 -0.091183 -0.022494 -0.44399 -0.22097 0.15413 0.24535 0.12885 0.08178 -0.045848 0.20483 0.17298 0.17375 -0.016815 -0.34764 -0.17532 
EOS -0.10671 -0.056957 0.07072 -0.25857 -0.0083434 0.17872 -0.40938 -0.085961 0.11611 -0.16363 -0.041286 -0.091586 -0.21517 -0.13592 -0.088183 0.0087178 -0.065811 0.18583 0.17099 -0.13357 -0.24877 0.16581 -0.026876 0.0086531 -0.15359 -0.069774 0.061258 -0.25777 -0.15201 -0.41142 0.06535 0.053103 0.032977 0.15667 0.12429 0.20717 -0.006635 0.41592 0.019263 0.12991 0.076807 0.086816 0.25995 -0.038904 0.31681 -0.022489 0.24017 0.20885 0.067188 0.021514 0.2013 0.012898 -0.080677 0.24965 -0.08396 -0.0038152 0.097781 -0.14963 0.1072 -0.30311 -0.045999 0.0032817 0.10174 0.066293 -0.078027 -0.00047199 -0.26277 0.2318 -0.29752 -0.21014 0.0082933 0.37454 -0.04439 0.04236 0.28854 0.14561 -0.018507 0.048771 0.1621 0.28267 0.046331 0.2452 -0.0046697 -0.042828 0.27486 -0.0030722 -0.088917 -0.32277 -0.23062 0.12513 0.071708 0.083317 0.07912 0.001133 0.045956 -0.0045755 0.17504 -0.12455 -0.13726 -0.087619 
to -0.21922 -0.15187 0.3243 -0.075745 0.21981 0.24343 -0.31687 -0.021695 0.14595 -0.067881 -0.049607 0.22367 -0.17804 -0.19652 0.16036 -0.10775 -0.017341 0.11748 0.22575 0.1023 -0.25987 -0.0058213 -0.011671 0.13884 0.054576 -0.016237 0.11278 -0.14063 -0.22525 -0.079816 0.15475 0.12781 -0.081798 0.27314 -0.01708 0.082118 0.055124 0.18417 0.17447 0.064232 0.10211 -0.067231 0.20347 -0.14701 0.51485 -0.27875 0.29858 0.26208 0.0038244 -0.10704 0.054086 -0.10614 -0.009203 -0.00037802 -0.021139 -0.15442 0.11236 -0.087292 0.35284 0.029198 -0.29787 0.22977 -0.072487 -0.061671 -0.19334 0.081465 -0.29468 -0.14742 -0.093311 -0.32427 -0.13334 0.48676 0.13664 0.034638 0.041765 0.027542 -0.067173 0.060059 0.16917 0.37347 0.006885 0.27458 -0.23397 0.022349 0.3399 -0.034848 0.065288 -0.67821 -0.14801 0.077742 0.15167 0.20287 0.093456 -0.10198 0.18979 0.33825 0.26213 -0.17365 -0.38052 -0.078409 
from -0.22677 -0.045901 0.24267 -0.22965 0.15757 0.33158 -0.28525 0.10419 0.14976 -0.16738 -0.1061 0.030665 -0.14493 -0.15158 0.033258 -0.082404 -0.12955 0.23587 0.033968 0.060394 -0.19808 0.1266 -0.085676 0.15611 -0.082051 0.002908 0.070996 -0.29714 -0.21909 -0.32389 -0.053704 0.1094 -0.095939 0.27827 0.015633 0.051761 -0.063086 0.26732 0.087489 0.091134 0.1072 -0.046187 0.26162 -0.093688 0.48077 -0.22893 0.37049 0.18463 -0.019556 -0.057444 0.10115 -0.002556 -0.11617 0.061591 -0.07044 -0.14904 0.075386 -0.11843 0.15138 -0.060758 -0.31877 0.14887 -0.10922 0.098561 -0.057605 -0.01818 -0.3834 -0.051181 -0.18688 -0.18665 -0.071216 0.63922 0.054187 0.073161 0.10558 0.057523 -0.061242 0.064949 0.14998 0.22747 0.048831 0.24996 -0.070748 -0.010557 0.2104 -0.051441 0.065438 -0.49548 -0.21847 0.013193 0.022104 0.10248 0.1318 -0.012869 0.027713 0.23513 0.13918 -0.094679 -0.2373 -0.11444 
flights -0.51616 -0.36654 0.35897 -0.32544 0.12289 0.35418 -0.38318 -0.0047921 0.19512 -0.087201 -0.055936 -0.053526 -0.19325 -0.20188 -0.067505 -0.20121 -0.10773 0.16666 0.12658 -0.0033231 -0.2263 0.28445 -0.23943 -0.037752 -0.1214 0.066247 -0.10782 -0.27355 -0.19569 -0.2726 -0.16969 0.24536 -0.0089977 0.059072 -0.025835 -0.095738 0.0038025 0.2414 0.037633 0.021271 0.041754 -0.037162 0.3037 -0.068614 0.2798 -0.095887 0.20297 0.30288 -0.053854 -0.10035 0.23529 0.10532 -0.088913 0.22 0.0093494 5.3907e-05 0.029293 -0.047728 0.29878 -0.066433 -0.36731 0.053122 -0.04502 0.016188 -0.036196 -0.061711 -0.22791 -0.047708 -0.12259 -0.1807 0.26845 0.51134 0.14045 0.10302 0.29968 -0.037313 0.14487 0.15225 0.01969 0.32362 0.065185 0.2809 -0.074037 -0.08247 0.17575 0.034051 -0.01231 -0.4592 -0.21542 0.16809 -0.076133 0.031005 0.10503 -0.070305 0.098355 0.2213 0.24041 -0.024059 -0.35859 -0.10131 
the -0.079764 -0.20806 0.028149 0.15424 0.1628 -0.11061 0.042582 0.21205 -0.0067055 -0.25257 -0.06812 0.12132 -0.22807 0.008042 0.24283 -0.17526 0.03963 0.10625 -0.21667 -0.26322 0.14069 0.27201 0.23654 -0.15983 -0.0099489 -0.16551 -0.026161 -0.52598 -0.041796 -0.2269 0.071102 -0.14605 -0.096842 -0.057336 -0.13403 0.19138 -0.075338 0.65683 0.035118 -0.17322 0.2085 0.10067 0.17881 -0.036076 0.11292 -0.21261 0.24047 0.030916 -0.018853 -0.075733 0.08759 0.10841 -0.07488 0.02578 -0.16353 -0.054843 0.15301 0.043912 0.58007 -0.48338 -0.49825 0.20753 0.1912 0.38292 0.011329 -0.040701 -0.072031 -0.030383 -0.026251 -0.47589 -0.015225 0.60911 -0.050805 -0.34726 0.15882 0.21086 -0.12969 0.090938 0.35658 0.24184 0.12849 -0.051049 -0.19425 -0.084983 0.29041 0.067845 0.059075 -0.30295 -0.50178 0.36725 0.13576 0.21408 0.10495 -0.1611 -0.07647 0.11101 0.29069 0.10244 -0.57052 -0.18735 
on -0.40612 -0.36675 -0.059443 -0.30999 0.14071 0.52066 -0.0049916 -0.01569 0.15868 -0.0013696 0.1305 0.16277 0.070666 -0.014202 -0.10042 -0.084142 -0.33033 0.148 0.16075 -0.15628 -0.29244 0.27678 -0.26243 0.27471 0.011945 -0.14535 0.096411 -0.1123 -0.014079 -0.32473 -0.082849 0.14486 -0.12843 0.25559 0.014767 0.049191 0.11774 0.33931 0.10539 0.30532 0.11657 -0.048353 0.29023 -0.042611 0.39524 -0.22168 0.36193 0.28879 0.11043 -0.099108 0.19255 0.085267 -0.087814 0.21634 -0.081329 -0.047412 0.12247 -0.068396 -0.0013856 0.042135 -0.32378 0.31725 -0.04682 0.065147 0.025338 -0.14085 -0.41129 -0.15506 -0.31433 -0.091342 -0.039266 0.42823 -0.016907 0.15272 0.25586 0.025874 0.10254 0.28139 -0.017218 0.42522 -0.12494 0.42519 -0.0068871 -0.062742 0.17386 0.011946 0.2115 -0.83771 -0.14323 0.1048 0.057844 0.10082 0.018724 -0.16177 0.21028 0.26891 0.24258 -0.17587 -0.3379 -0.082451 
me -0.3518 -0.15006 0.09263 -0.25821 0.065394 0.3256 -0.039137 0.019414 0.018111 -0.25699 -0.10061 0.12995 0.058414 -0.014121 -0.082243 -0.38712 -0.16462 0.17151 -0.16154 -0.26479 -0.1905 0.14275 -0.086964 0.090778 -0.050676 -0.012173 -0.03858 -0.17025 -0.24211 -0.020412 -0.23641 0.16702 0.02201 0.05105 -0.064738 -0.10049 -0.14008 0.53316 -0.25857 -0.17709 0.16944 0.25361 0.33651 0.071037 0.12267 -0.16992 0.36892 0.15919 -0.17098 -0.14726 -0.037499 0.20234 -0.21151 0.19196 -0.064129 0.031861 0.12738 -0.065169 0.30501 -0.29357 -0.23779 0.17006 0.10103 0.21613 -0.017167 -0.047346 -0.16944 -0.19725 -0.34779 -0.21767 0.32778 0.70159 0.03835 0.024746 0.32876 0.04743 0.086568 0.010891 0.1637 0.42784 0.029566 0.11829 0.020681 -0.10947 0.18909 -0.06745 -0.071747 -0.38202 -0.43186 0.021707 0.042977 0.36441 0.33375 -0.070201 0.030678 0.15142 0.3908 0.15584 -0.69884 -0.18824 
what 0.11549 0.05592 -0.0088319 -0.1565 0.18603 -0.020948 -0.068651 -0.16598 -0.033919 -0.058518 -0.039187 0.18869 0.13913 0.20692 0.01506 -0.023704 -0.065271 0.16616 -0.093349 -0.24641 0.020468 -0.054002 0.29682 0.041254 -0.13903 -0.14882 -0.13287 -0.10749 -0.067393 -0.40452 -0.0084197 -0.19023 -0.0050312 0.024114 0.14782 0.18091 0.047649 0.62692 0.21492 0.18633 -0.13173 0.23149 0.30822 0.029131 0.25857 -0.16664 0.32816 0.037988 -0.041944 -0.010126 0.12809 0.22092 0.049211 0.13152 -0.16917 0.17016 -0.13303 -0.22177 0.10213 -0.56016 -0.28732 0.0532 0.13162 0.50214 0.16051 0.097309 -0.16808 0.035447 -0.36828 -0.36088 0.16265 0.49572 -0.13272 -0.091569 0.27972 0.028695 0.016223 -0.12649 0.35041 0.43404 -0.080834 0.16492 0.098497 0.011354 0.24933 0.016063 -0.050514 -0.387 -0.15711 0.23297 0.12524 -2.0095e-05 0.241 -0.12503 0.09647 0.10497 0.19543 -0.25016 -0.34504 -0.15242 
flight -0.12804 -0.1587 0.24973 -0.10194 0.11608 0.11431 -0.19924 -0.014437 0.064308 -0.018476 0.063495 0.20482 -0.078258 -0.20206 0.021091 -0.15077 -0.31094 0.047414 0.15328 0.17276 -0.13607 0.035309 -0.089052 0.09465 0.054018 0.0528 0.10259 -0.33197 -0.10292 -0.49293 0.060489 0.13316 -0.13696 0.093373 0.10705 0.042527 -0.12796 0.49304 0.27196 0.21735 0.046794 -0.12756 0.17644 -0.10173 0.37117 -0.13671 0.3921 0.13837 -0.053922 -0.0048428 0.18623 -0.078772 -0.029584 -0.068545 -0.012059 -0.21903 0.048478 -0.034792 0.357 0.0050781 -0.56075 0.048391 -0.13813 0.045904 0.087059 -0.08652 -0.34225 -0.25826 -0.16787 -0.05333 -0.12066 0.65587 -0.035171 -0.028412 0.077869 0.004691 0.098059 0.11409 0.27084 0.26016 0.032403 0.2774 -0.04834 0.080567 0.15406 0.035627 0.15233 -0.54458 -0.089221 -0.096611 -0.13105 -0.02195 0.050035 -0.084015 -0.043072 0.40606 0.10421 -0.10647 -0.2669 0.12762 
boston -0.23946 -0.32477 0.26263 -0.30788 0.15074 0.20664 -0.21746 -0.29611 -0.017969 -0.063114 0.05268 0.32989 0.038076 -0.057598 -0.048108 -0.13796 -0.33454 0.16664 0.049748 -0.0771 -0.1962 0.070086 0.10999 0.20421 0.034751 -0.08169 0.051835 -0.25351 0.035494 -0.31862 0.12083 -0.038247 -0.10119 0.16179 0.19834 0.043146 0.087385 0.50914 0.23181 0.22628 0.053348 0.040491 0.23596 0.14297 0.2089 -0.20821 0.40331 0.074801 0.10876 0.11712 0.1613 0.0026309 0.041487 -0.039052 -0.20502 -0.034757 0.010827 -0.19456 0.36805 -0.24728 -0.18307 0.16944 -0.033028 0.35059 0.10352 -0.048054 -0.084778 -0.12307 -0.28692 -0.15549 -0.15754 0.23174 0.065225 -0.22129 0.05321 -0.018901 0.054692 -0.10197 0.068379 0.33216 -0.11516 0.2161 0.0091459 0.047563 0.02412 0.11119 0.064036 -0.58642 -0.16643 0.038566 0.021209 0.18821 0.07158 -0.2193 0.18911 0.26193 0.2586 -0.26629 -0.40808 0.089114 
show -0.5606 -0.25857 0.65465 -0.51445 0.045032 0.3727 -0.61078 -0.092574 0.12257 -0.18352 -0.15274 0.0075949 -0.2301 -0.24835 0.027662 -0.092104 -0.068241 0.3202 -0.067808 -0.079382 -0.23634 0.1123 -0.083176 0.029777 -0.099119 -0.020952 -0.021369 -0.21515 -0.027504 0.096632 -0.13265 0.18285 -0.033977 0.25036 -0.17746 -0.059974 0.071557 0.0069996 -0.037527 -0.10033 0.055185 0.05732 0.25001 0.076701 0.19449 -0.048971 0.35463 0.099944 -0.011537 -0.085232 -0.014435 0.0567 -0.016214 0.20185 -0.09506 0.022315 -0.0053208 -0.053036 0.15235 -0.16494 -0.069724 0.13972 -0.031122 0.17566 -0.024047 -0.006055 -0.24862 0.03609 -0.25682 -0.31767 0.19911 0.59747 0.087529 0.025116 0.22229 0.04377 -0.07301 0.066545 0.023446 0.22929 -0.067436 0.2588 -0.21182 -0.12297 0.36971 0.01231 -0.041495 -0.43023 -0.43377 0.18749 0.077415 0.15559 0.25403 -0.07878 0.12162 0.16768 0.32063 -0.062546 -0.59234 -0.28943 
san -0.41254 -0.32561 0.37027 -0.36459 0.19752 0.44385 -0.43776 -0.13248 0.1004 -0.14506 -0.071413 0.23867 -0.12546 -0.1969 -0.028607 -0.11021 -0.30824 0.19401 0.073795 -0.040503 -0.35899 0.1058 0.19073 0.24469 0.13605 -0.092754 0.0068142 -0.18825 -0.060638 -0.21468 0.14365 0.092978 -0.081374 0.15241 0.22632 0.21987 0.11835 0.44966 0.072203 0.09023 0.042913 0.0076205 0.20109 -0.015687 0.36786 -0.30289 0.26836 0.033985 0.051857 -0.097126 0.06984 -0.11396 0.064167 -0.10517 -0.24016 -0.16913 0.015186 -0.13583 0.34241 -0.12658 -0.11288 0.18331 -0.10804 0.19756 -0.071878 0.083186 -0.26768 -0.14112 -0.24021 -0.18578 -0.15133 0.35403 0.11353 -0.071089 -0.049585 -0.00031309 0.057231 -0.072786 0.075669 0.26713 -0.027271 0.15669 -0.079886 -0.038059 0.11139 -0.01032 0.19951 -0.64223 -0.11229 -0.047618 0.076176 0.19163 0.056791 -0.19425 0.1464 0.34457 0.12648 -0.31222 -0.086064 0.083598 
denver -0.37914 -0.2917 0.3665 -0.35995 0.19885 0.2297 -0.42569 -0.23767 0.089812 0.034188 -0.071127 0.29891 -0.2935 -0.42791 -0.14967 -0.15743 -0.15511 0.1744 0.018063 0.0087486 -0.18282 0.23199 -0.021949 0.097829 0.003551 -0.037957 0.038752 -0.15465 0.034992 -0.35042 0.064387 -0.04027 -0.076804 0.21875 0.054764 0.12684 0.010096 0.29975 0.2104 0.14471 -0.1692 0.099198 0.13402 0.039772 0.30948 -0.16035 0.2666 0.18454 0.041401 0.061211 0.085466 -0.062317 0.01281 -0.020591 -0.13876 -0.16619 0.061781 -0.066093 0.4538 -0.21633 -0.10266 0.14123 -0.014494 0.27108 0.0079485 -0.17018 -0.11612 -0.060796 -0.24056 -0.23598 -0.16508 0.33051 -0.047685 -0.21179 0.047178 -0.052421 0.067007 -0.060338 0.0022245 0.24446 -0.35044 0.024713 -0.093494 -0.020469 0.046431 0.024201 0.051002 -0.39391 -0.26814 0.053238 -0.020622 0.30376 -0.030746 -0.19534 0.12957 0.13998 0.16853 -0.14851 -0.27007 -0.13659 
a -0.28303 -0.23405 0.18503 -0.29289 -0.12247 0.23052 -0.20816 -0.044266 0.041891 0.39649 -0.21507 -0.053565 -0.11505 -0.42388 -0.2857 -0.066855 -0.16182 -0.081596 0.29474 0.10624 -0.012065 0.0072075 -0.034734 0.27986 0.19518 0.055399 0.24759 -0.34532 -0.28239 -0.24762 0.12224 -0.13841 -0.2203 -0.028734 0.50166 -0.13818 -0.17256 0.33774 -0.020871 0.16395 0.038467 0.17163 0.19822 -0.15123 0.43898 -0.067967 0.30333 0.34786 0.0036969 0.31729 -0.038928 -0.013545 -0.24909 0.0087201 -0.020604 -0.15194 0.32851 -0.33616 0.20369 0.13901 -0.1461 0.014886 -0.14736 0.070809 0.042941 -0.093596 -0.089029 0.040579 -0.18384 0.092376 -0.47101 0.49783 0.27538 -0.11265 -0.21409 -0.077363 0.046748 0.13624 0.39243 0.48402 0.0572 0.45008 -0.093557 0.00063671 0.17556 -0.060206 0.33253 -0.64812 0.1005 -0.021515 0.14692 0.29104 0.070624 -0.20179 0.2483 0.39903 0.24167 0.042451 -0.1812 0.060724 
francisco -0.33523 -0.31111 0.47091 -0.33826 0.28534 0.33582 -0.38188 -0.26337 0.06914 -0.040175 0.087071 0.33425 -0.031825 -0.15937 -0.095498 -0.062126 -0.21099 0.098527 0.091412 0.052045 -0.41185 0.087851 0.04043 0.15902 -0.019792 -0.12189 0.034142 -0.12536 0.037592 -0.35925 0.12465 0.020078 -0.068476 0.24331 0.07517 0.24184 0.14044 0.35935 0.16162 0.22981 -0.11468 -0.12823 0.15124 0.04266 0.41332 -0.23978 0.42458 0.070201 0.12122 0.0029869 0.070366 -0.064218 0.13057 -0.11548 -0.22279 -0.14593 -0.053674 -0.11772 0.39362 -0.077641 -0.13811 0.16897 -0.012895 0.25113 -0.014226 -0.043471 -0.18536 -0.015446 -0.2755 -0.2098 -0.18394 0.33695 0.04221 -0.17982 0.09342 -0.037836 -0.053396 -0.044482 0.0020339 0.2653 -0.09964 0.11509 -0.039315 -0.021244 0.075401 0.12391 0.054419 -0.57762 -0.17691 0.03528 0.086083 0.24806 0.040201 -0.18287 0.22267 0.1959 0.18297 -0.33162 -0.29022 0.011435 
in -0.25594 -0.35651 0.28333 -0.28798 -0.021266 0.18603 -0.40584 -0.086916 0.06028 0.080284 0.33677 0.06708 -0.09871 -0.027737 -0.17835 -0.038984 -0.48554 0.086714 0.33442 -0.038683 -0.13752 0.12813 0.039142 0.13301 0.14198 0.022235 -0.01605 -0.43921 0.19478 -0.5432 0.17175 -0.08421 -0.19124 -0.0089953 0.61845 0.052488 0.21207 0.59828 0.072928 0.24528 0.10186 -0.035977 0.15228 -0.014717 -0.05615 -0.02743 0.17359 0.18791 0.15342 0.048608 0.40586 -0.19181 -0.10111 0.17662 0.0057214 -0.21921 0.39926 -0.40205 0.18621 -0.33711 0.030098 0.29934 -0.17113 0.11734 0.15107 -0.25111 -0.49068 0.20448 -0.334 -0.063226 -0.19765 0.20736 0.065595 -0.11241 0.023511 0.1013 0.22374 0.099197 0.1526 0.38013 0.00037104 0.38763 -0.0055635 -0.040038 -0.047718 0.1531 0.0071164 -0.83219 -0.063978 -0.034603 0.038617 0.18076 -0.028185 -0.40982 0.13188 0.17959 0.39606 -0.15246 -0.15584 0.43397 
and -0.44082 -0.13218 0.40224 -0.22361 -0.11631 0.12588 -0.22782 -0.36504 0.18738 0.12453 0.016558 -0.12625 -0.2448 -0.10996 -0.22399 -0.093155 -0.32073 0.087586 0.10304 -0.11111 -0.12695 0.11282 0.050052 0.010155 0.0056616 0.14915 -0.031638 -0.46805 -0.083677 -0.34339 -0.05436 0.095139 -0.25413 -0.13372 0.23495 -0.29391 -0.0033232 0.32425 -0.096475 -0.3582 -0.090279 0.26576 0.37947 -0.14348 0.12097 -0.058628 0.39955 0.082244 -0.055944 0.11053 0.10142 -0.20774 -0.19304 0.25385 0.18229 0.095845 -0.17836 -0.18765 0.24765 -0.29807 0.13964 0.13572 0.080896 0.44424 0.037546 -0.092104 -0.44867 0.20375 -0.37573 -0.21253 -0.006704 0.11408 0.27269 -0.042635 -0.025654 -0.17683 -0.019539 0.22687 0.0063794 0.25003 -0.10128 0.46851 -0.25126 -0.093957 0.20371 -0.0020584 -0.022702 -0.49922 -0.045622 0.15157 0.01926 0.11746 0.017197 -0.23142 0.19275 -0.085597 0.34844 0.13842 -0.31348 0.13496 
atlanta -0.20747 -0.19662 0.43916 -0.18978 0.20929 0.15281 -0.14843 -0.187 0.095619 0.069324 0.12304 0.30789 -0.0076169 -0.0396 0.044736 -0.07419 -0.20345 0.030469 -0.042791 -2.3949e-05 -0.20132 -0.028063 0.12362 0.1046 0.026635 -0.031155 -0.037626 -0.28498 0.14095 -0.37752 0.076882 -0.064809 -0.21305 0.14276 0.026895 0.12548 0.091041 0.42665 0.17204 0.064286 -0.054608 -0.062544 0.20604 -0.073307 0.34737 -0.12509 0.45058 0.0383 0.11781 0.008072 0.13586 -0.092411 0.012932 -0.023897 0.012617 -0.059647 0.021514 -0.14742 0.30996 -0.20152 -0.20287 0.28833 -0.082786 0.44851 0.16205 -0.050453 -0.32579 0.03858 -0.1928 -0.20292 -0.10074 0.38667 -0.069209 -0.14571 0.088536 0.061456 -0.0098992 0.17437 0.058298 0.18507 -0.11552 0.19305 -0.049999 0.023406 0.11903 0.0073708 0.056469 -0.66533 -0.27454 0.14992 0.14419 0.16798 0.031039 -0.23256 0.028292 0.036954 0.23012 -0.23496 -0.305 -0.039667 
i -0.090527 0.014785 0.32607 -0.10139 -0.0040937 0.0052612 -0.27966 0.11956 -0.014823 0.21292 0.050654 0.17852 -0.1582 -0.32673 0.016974 0.011654 -0.30624 -0.088725 0.20395 0.25611 0.062157 -0.12417 -0.033313 0.19729 0.23306 0.0085107 0.29217 -0.36808 0.027966 -0.41638 0.22386 -0.025072 -0.35394 0.16944 0.35828 0.11737 -0.15082 0.45297 0.14764 0.064571 0.0031476 0.070397 0.1276 -0.2215 0.50059 -0.0026375 0.36479 0.10048 -0.071656 0.17534 0.14705 -0.37702 -0.25149 -0.011327 0.24106 -0.37469 0.31733 -0.25586 0.17517 -0.093973 -0.2385 0.23233 -0.17846 0.10184 0.075541 -0.21671 -0.57025 -0.092154 -0.25501 -0.048707 -0.64881 0.61731 -0.12075 -0.054075 -0.21322 0.2448 -0.0012404 0.10229 0.41179 0.26592 -0.046952 0.31508 -0.24478 0.099703 0.18788 0.077174 0.17986 -0.71281 -0.053523 -0.26852 0.006229 0.084138 -0.00048026 -0.28448 -0.019139 0.29945 0.17335 -0.087252 -0.34385 0.18548 
pittsburgh -0.38895 -0.27693 0.47467 -0.28262 0.13491 0.25749 -0.24111 -0.20395 0.28499 0.044949 -0.28705 0.20286 -0.15955 -0.1136 -0.025377 -0.028449 -0.045066 0.057604 0.01083 0.085401 -0.080989 0.0093545 0.019584 0.093252 -0.041264 0.030056 0.10279 -0.27488 -0.050209 -0.20083 -0.027374 -0.072375 -0.20403 0.36197 0.0050363 0.060879 0.089461 0.40793 0.23202 0.090109 -0.024155 -0.013409 0.40741 -0.033971 0.67039 -0.26001 0.38548 0.092601 0.072497 0.016165 0.31302 -0.060985 -0.15395 0.00061711 -0.01136 -0.16477 0.0038309 -0.069947 0.45152 -0.068245 -0.21555 0.17947 -0.023632 0.43795 0.088376 -0.025629 -0.16227 0.13329 -0.1735 -0.10707 -0.025162 0.48883 0.054336 -0.075679 0.032956 -0.10616 0.053893 0.078351 -0.078509 0.13835 -0.25613 0.26398 -0.16885 -0.052713 0.12601 -0.1003 0.014492 -0.51619 -0.3425 0.21211 0.11682 0.21122 -0.024156 -0.008047 -0.015717 0.11717 0.10382 -0.23786 -0.27475 -0.17012 
is 0.049806 -0.17497 -0.13017 0.090413 -0.11864 -0.19329 0.11293 -0.13677 0.0093052 0.030975 -0.045737 -0.011593 -0.26208 0.045472 -0.2188 0.27477 -0.020374 0.17999 -0.28725 0.15173 0.11553 0.13093 -0.054703 -0.10314 -0.28561 0.031577 -0.089146 -0.068783 -0.18848 -0.35066 0.082361 -0.15279 0.064681 -0.02565 0.36131 0.12189 0.12427 0.80013 0.1109 0.22575 -0.27724 0.094762 0.1722 0.045642 0.07652 -0.19518 0.20863 0.16912 -0.13708 0.12831 0.29978 -0.095109 0.021531 -0.0084422 -0.026565 -0.045685 -0.045286 -0.27221 0.32172 -0.52919 -0.31885 0.16293 0.15959 0.43718 0.064797 -0.18072 0.029151 0.24432 -0.47986 -0.2721 -0.25997 0.41026 -0.20081 -0.46512 0.070499 -0.050017 -0.10483 -0.2064 0.24506 0.59922 -0.2344 0.25867 -0.19096 -0.18111 -0.048632 -0.025026 0.073903 -0.51899 0.034123 0.28623 0.36761 0.012677 0.029605 -0.19174 0.26816 0.098471 0.12265 0.15269 -0.1497 0.2292 
dallas -0.49427 -0.42722 0.43081 -0.36493 0.19049 0.20304 -0.19618 -0.10823 0.048048 -0.097124 0.049798 0.19864 -0.11188 -0.15226 -0.099413 0.012919 -0.039382 0.18206 -0.069931 0.061076 -0.25717 0.14981 -0.11111 0.19718 -0.073825 -0.063991 -0.088202 -0.28158 -0.016983 -0.24624 0.066787 0.034002 0.0035894 0.17434 0.059023 0.041531 0.16472 0.43668 -0.046909 -0.033944 -0.046171 -0.14174 0.22364 0.034015 0.40124 -0.20829 0.32531 0.091543 0.088439 0.015083 0.0088167 0.017611 -0.022853 0.02261 -0.28374 -0.045003 -0.064368 -0.1004 0.43771 -0.21511 -0.13883 0.22083 0.0044191 0.33169 -0.00689 -0.14647 0.026068 0.14057 -0.30351 -0.20755 -0.12711 0.25324 0.040791 -0.24436 -0.026897 0.078 -0.065946 -0.014547 0.0034346 0.18983 -0.073212 0.13261 -0.26723 0.0089721 0.080478 0.014661 0.051419 -0.64858 -0.24719 0.27577 0.16102 0.06582 0.03553 -0.25071 0.2479 0.1773 0.29437 -0.047088 -0.28025 -0.074901 
baltimore -0.35521 -0.27798 0.29653 -0.29094 0.13668 0.25267 -0.21836 -0.16847 0.19473 -0.040064 -0.17458 0.12282 -0.066604 -0.029611 -0.055788 -0.067971 0.030004 0.16901 -0.13343 -0.043035 -0.16571 0.12606 0.021123 0.081984 -0.13154 -0.033014 -0.12072 -0.10551 -0.098191 -0.15153 -0.15228 -0.033327 -0.01494 0.20275 -0.069834 0.058509 0.080878 0.41427 0.13044 0.056562 -0.076711 0.047381 0.32532 0.037018 0.44613 -0.19096 0.35829 0.16175 0.051472 -0.008402 0.17526 0.081018 0.0018825 0.11236 -0.15068 0.048385 -0.089107 -0.090694 0.39379 -0.18242 -0.2435 0.15498 0.011602 0.42672 0.096956 0.029831 -0.03032 0.07444 -0.24852 -0.18256 0.14852 0.39353 0.015677 -0.1243 0.20785 -0.060482 0.01989 0.011729 -0.059748 0.26806 -0.24702 0.21146 -0.092181 -0.092137 0.16055 -0.033002 -0.023205 -0.53848 -0.2816 0.33982 0.2168 0.14768 0.094143 -0.069209 0.15019 0.1144 0.18425 -0.18503 -0.45042 -0.23019 
all -0.44436 -0.10631 0.51013 -0.43579 0.086749 0.29463 -0.39389 -0.15744 0.074882 -0.0383 0.11595 -0.085785 -0.25102 -0.20441 -0.033864 -0.20954 -0.023313 0.17361 -0.010386 -0.13474 -0.25814 0.31343 -0.23093 -0.15358 -0.17716 -0.020347 -0.23216 -0.20743 -0.067534 -0.41664 -0.18139 0.22372 0.031973 -0.045874 -0.14712 -0.18181 -0.079945 0.065723 -0.042512 -0.21008 -0.08379 0.095642 0.18853 -0.11784 0.32832 0.074045 0.13469 0.28007 0.0061128 -0.030047 0.23934 0.13193 -0.22431 0.45561 0.15387 0.27264 0.0012885 -0.16869 0.11011 -0.2851 0.062089 0.070926 0.017617 0.29632 -0.053674 -0.098226 -0.28416 0.16525 -0.21786 -0.33068 0.20948 0.29136 -0.0068475 -0.052605 0.35192 0.10542 0.11953 0.15809 -0.022895 0.2734 0.0086244 0.16676 -0.042882 0.023079 0.21098 0.083305 -0.21257 -0.54069 -0.42657 0.21339 0.04467 0.025438 0.088264 -0.25874 0.11415 -0.16193 0.36676 0.010481 -0.52358 -0.27585 
philadelphia -0.45088 -0.28845 0.70041 -0.52539 0.23462 0.29427 -0.37617 -0.20616 0.12395 0.050814 -0.17128 0.22306 -0.22319 -0.29703 0.022684 -0.096684 -0.065625 0.10647 0.075312 0.086371 -0.15955 0.037843 -0.029645 0.10388 0.030155 -0.026401 0.046887 -0.17551 -0.0035201 -0.20603 0.061958 -0.054498 -0.15154 0.27044 0.068347 0.069824 0.085092 0.20029 0.13648 0.089969 -0.041659 0.11319 0.28019 -0.014091 0.58488 -0.19156 0.27575 0.079713 0.10873 0.044542 0.21104 0.00087451 -0.20984 0.0001097 -0.036974 -0.15635 0.099809 -0.14624 0.49258 -0.1381 0.05933 0.19161 -0.071193 0.36708 -0.0069481 -0.085087 -0.11354 0.11433 -0.21854 -0.2469 -0.1321 0.36634 0.04942 -0.22299 -0.073199 -0.038827 0.10741 -0.048659 -0.056415 0.25176 -0.21966 0.080871 -0.1529 0.072541 0.06238 -0.055703 -0.053252 -0.44072 -0.36936 0.095765 0.077042 0.32902 -0.014537 -0.13314 0.085099 0.16002 0.23804 -0.28315 -0.2311 -0.18478 
like -0.33024 -0.20819 0.1923 0.019485 0.075989 0.11975 -0.037514 0.089874 0.030506 0.20388 0.021089 0.27969 -0.027482 -0.29558 -0.055883 -0.10463 -0.33368 -0.12191 0.031442 0.18245 0.053831 0.014938 -0.1643 0.19399 0.19186 -0.0080199 0.37624 -0.34866 -0.015164 -0.36961 0.11467 -0.019603 -0.32942 0.20644 0.15613 0.078754 -0.2384 0.58494 0.13956 0.10617 0.12362 0.028835 0.21318 -0.19923 0.50535 -0.17215 0.50642 0.21827 -0.049992 0.16524 0.042044 -0.1546 -0.2499 -0.083068 0.080271 -0.40554 0.35184 -0.059113 0.41202 0.10866 -0.44085 0.29115 -0.10072 0.13664 0.054211 -0.23997 -0.30149 -0.28825 -0.20711 0.030914 -0.66276 0.76166 -0.068734 -0.24837 -0.20328 0.078559 0.0027237 0.1499 0.27519 0.25573 -0.032771 0.308 -0.19339 0.063306 0.067758 0.073401 0.26055 -0.69593 -0.1604 -0.22692 -0.010714 0.31189 -0.085099 -0.20567 -0.00036667 0.31368 0.24502 0.080323 -0.45356 0.10801 
are -0.38999 -0.43256 -0.041148 -0.081357 0.020546 0.22567 -0.10313 -0.060307 0.15534 0.085447 -0.075649 0.067533 0.055571 -0.044195 -0.35046 -0.10702 -0.026315 -0.0079834 -0.21742 -0.26836 -0.083539 0.19434 0.22425 -0.091284 -0.049629 0.021708 -0.20283 -0.34343 -0.048122 -0.059842 -0.15571 -0.19043 -0.087167 -0.039698 0.16 0.012654 0.092251 0.5803 -0.11361 -0.10912 -0.063961 0.10866 0.31576 -0.046818 -0.043931 -0.121 0.324 0.27004 -0.030213 -0.039235 0.056125 0.098449 0.16555 0.10165 -0.1418 0.059779 0.078523 -0.24704 0.31114 -0.28915 -0.43725 0.20294 0.10952 0.34146 0.20016 0.013146 0.010498 0.085517 -0.26449 -0.25513 0.34568 0.55726 0.024717 -0.087124 0.38287 0.06141 0.044947 0.21469 0.16013 0.34166 -0.07073 0.29068 -0.035222 -0.38604 0.1806 -0.0090961 0.083737 -0.47916 -0.11699 0.37834 0.27558 0.30836 0.15402 -0.24442 0.10656 -0.0089623 0.325 0.027632 -0.46041 -0.088429 
list -0.33732 -0.0080783 0.71344 -0.21679 0.25619 -0.035339 -0.68149 -0.096928 -0.016739 -0.095831 0.13548 0.15103 -0.17909 -0.20953 0.20599 -0.058363 -0.2495 0.44746 0.00084834 0.10338 -0.20224 -0.027357 -0.25305 0.021053 -0.23932 0.084468 -0.065388 0.10228 -0.1444 -0.56764 -0.14707 0.26612 0.12009 0.13477 -0.047528 -0.022988 -0.2696 0.21994 0.32284 0.065896 0.072683 0.18236 0.16321 -0.2131 0.24815 0.27733 0.34531 0.30472 -0.097592 0.079802 0.16332 0.016338 -0.081314 0.32259 0.32973 0.31479 -0.034917 -0.073768 0.038035 -0.42128 -0.10811 0.10101 -0.19372 -0.016305 -0.019037 0.065702 -0.27546 -0.21821 -0.28309 -0.31027 0.14661 0.25733 -0.24465 0.12235 0.25946 0.0053272 -0.0018613 -0.16672 -0.034476 0.28028 -0.12333 0.14294 0.12106 0.20362 0.034614 0.085145 -0.27325 -0.37468 -0.20811 -0.023695 0.01153 -0.20283 0.19545 -0.089148 0.17042 0.018497 0.4112 -0.16316 -0.5504 -0.19275 
airlines -0.45406 -0.43246 0.12397 -0.30037 -0.02963 0.18597 -0.42136 -0.39816 -0.13748 0.16154 0.26107 -0.18916 -0.091275 -0.3235 -0.21702 -0.20297 -0.31116 0.073757 0.17221 -0.085507 -0.39671 0.34432 -0.076868 -0.30316 -0.12091 -0.16367 -0.084295 -0.1297 -0.3476 -0.52901 0.083233 0.16814 0.15441 -0.34422 0.056167 -0.011419 -0.056418 0.50285 0.089617 0.44818 -0.043804 -0.12543 -0.073247 -0.05233 0.014478 -0.035695 0.074497 0.29387 -0.026373 0.17167 0.039522 0.11263 0.19038 0.21627 -0.29572 0.13306 -0.057995 -0.083013 0.28147 0.031077 -0.30908 -0.15214 0.072787 0.039819 -0.14567 -0.063108 0.13373 -0.22087 -0.075681 -0.08796 -0.21486 0.24445 0.23488 -0.44614 0.27878 -0.10584 0.094933 0.098617 0.072877 0.45693 0.23553 0.18603 -0.0052115 -0.050046 0.14565 0.40505 0.15955 -0.55663 0.13241 0.33952 0.035996 -0.0013148 -0.065617 -0.2113 0.33212 0.18682 0.35572 0.030918 -0.37363 0.098053 
of -0.056775 -0.04897 0.10033 -0.018655 -0.08117 -0.09899 0.081844 -0.23395 -0.013585 -0.094318 0.15266 -0.063509 -0.28337 -0.17745 0.00049644 -0.051533 -0.21273 0.042309 -0.070301 -0.086966 -0.31674 0.12539 -0.052502 -0.45536 -0.28373 -0.14966 0.14442 -0.10528 -0.20464 -0.39132 0.11597 0.11321 0.104 -0.17028 -0.16717 0.25331 -0.16184 0.60739 0.092706 0.25375 -0.056189 -0.11493 -0.038589 -0.14121 0.23923 0.023771 0.30429 -0.13413 -0.03146 0.017088 0.11171 0.079785 0.0098501 0.20808 -0.14736 0.076666 -0.21055 0.1546 0.29811 -0.11498 -0.34867 -0.026763 0.26228 0.21237 -0.11092 -0.088106 -0.094633 0.016465 -0.36765 -0.2769 -0.084085 0.6582 -0.19956 -0.45105 0.23714 0.030267 -0.10512 0.151 0.19223 0.33215 0.12908 0.061089 -0.11296 -0.051077 0.42362 0.14578 0.075057 -0.44248 -0.30392 0.30842 0.23897 -0.067589 -0.071089 -0.011609 0.028212 -0.03221 0.15413 0.12892 -0.40291 0.029812 
between -0.32589 -0.24099 0.27876 -0.23416 0.049085 0.094755 -0.026446 -0.27704 0.10482 -0.056672 0.040663 0.13902 -0.0059412 0.047023 -0.10814 -0.046312 -0.2066 0.11449 -0.00080322 -0.096521 -0.14983 0.055559 0.10921 -0.10264 -0.17221 0.048721 0.029585 -0.28706 0.033071 -0.26947 -0.019718 0.0072515 -0.10585 0.16877 0.014648 0.015574 0.077719 0.61608 0.10475 0.049154 -0.041522 -0.010879 0.27339 0.073025 0.24577 -0.1227 0.37463 0.01098 0.099676 0.064064 0.24523 -0.0068128 -0.090402 0.12067 -0.075712 0.034225 -0.11987 -0.10006 0.43923 -0.27132 -0.089131 0.12172 0.16155 0.47949 0.15012 -0.11421 -0.19707 0.11586 -0.33504 -0.18103 0.01615 0.41472 -0.033809 -0.2523 0.17996 -0.076041 0.067002 -0.042406 -0.023881 0.14642 -0.10422 0.21576 -0.10006 -0.11422 0.036831 0.10366 -0.035571 -0.54893 -0.32022 0.18039 0.051045 0.17754 -0.032149 -0.16451 0.10568 -0.067397 0.20278 -0.10541 -0.35507 0.086255 
that -0.17772 -0.11542 0.39577 -0.37942 0.2468 0.0091848 -0.52236 -0.05587 -0.11623 0.042083 -0.076771 0.036463 -0.17671 -0.23824 0.15425 -0.08719 -0.02352 0.14294 0.14043 -0.14033 0.23818 0.19149 0.13771 -0.048968 0.07256 -0.18315 -0.034324 -0.39714 -0.045668 -0.61042 0.07371 -0.16243 -0.19771 -0.13882 0.20254 -0.064105 -0.068838 0.33328 0.24214 0.122 0.020644 0.25692 0.13298 -0.15355 0.3091 -0.076375 0.025354 0.15172 0.01982 -0.0056721 0.25117 0.24326 -0.22503 0.21344 -0.094078 0.010421 0.16302 -0.080429 0.29653 -0.44709 -0.14736 -0.061333 -0.0026035 0.30797 0.0228 0.05564 -0.05999 0.0061631 -0.045204 -0.28126 0.031479 0.41386 -0.0016985 -0.19054 0.04888 0.12414 0.20017 -0.086137 0.26561 0.22646 0.13495 0.046501 0.0025595 0.22021 0.21587 0.13943 -0.08542 -0.24393 -0.30159 0.16807 -0.21777 -0.015746 0.14151 -0.19817 -0.059436 0.21549 0.41509 -0.32503 -0.54541 -0.28736 
DIGIT -0.2748 -0.30306 0.79338 -0.58404 -0.0060971 0.25189 -0.40493 -0.52145 0.20086 -0.18383 -0.29396 0.44935 0.053077 -0.031998 0.21166 0.20117 -0.49092 0.20459 0.58276 0.086765 -0.11331 -0.44565 -0.16094 -0.19472 0.0094409 -0.036842 0.31776 -0.14814 -0.029892 -0.66264 0.25286 0.17797 -0.09638 0.3075 0.35446 0.20098 0.082289 0.51734 0.46119 0.6646 0.45408 0.29882 0.57168 -0.044764 0.83355 0.0065016 0.18851 -0.27545 0.1195 -0.042022 1.0812 0.24105 -0.51298 0.20722 0.40274 0.15431 0.037898 0.23407 -0.0029654 0.2713 0.08437 -0.15964 0.40576 0.26559 0.39354 0.29651 -0.3378 0.044622 -0.47416 0.25324 0.027954 0.12283 -0.30318 0.020417 0.17609 -0.30536 0.53111 -0.064587 -0.10743 0.083004 -0.14538 0.55311 -0.012653 0.41861 0.33476 -0.4268 -0.19342 -0.55588 -0.75258 0.01551 0.17184 -0.13135 -0.26764 0.27936 -0.32416 0.43347 0.45485 -0.64736 -0.34593 -0.22698 
washington -0.29524 -0.29764 0.23253 -0.20372 0.14183 0.23821 -0.20073 -0.11083 0.088192 0.0037351 0.13094 0.26461 -0.10421 -0.18498 -0.025717 -0.10685 -0.21663 0.11976 0.035914 0.013887 -0.25114 0.22041 -0.069263 0.21596 0.035505 -0.080258 0.049915 -0.19897 0.080252 -0.40877 0.11039 0.023753 -0.13989 0.17676 0.010117 0.1186 0.072146 0.34246 0.19983 0.16279 -0.046043 -0.11943 0.11709 -0.0040434 0.34321 -0.22576 0.35376 0.20453 0.10423 0.019924 0.092869 -0.076737 0.01861 0.039766 -0.12682 -0.14166 0.064216 -0.073491 0.23357 -0.1163 -0.2285 0.26269 -0.066026 0.23295 0.0039684 -0.19316 -0.28398 -0.10315 -0.16461 -0.16575 -0.27969 0.27933 -0.016451 -0.15343 0.019173 0.062545 -0.030779 0.14248 0.062302 0.2703 -0.17905 0.19216 -0.13079 0.029483 0.11262 0.10843 0.14051 -0.71868 -0.20505 0.084042 0.070225 0.08858 -0.03106 -0.26466 0.17104 0.22041 0.21895 -0.10718 -0.36315 -0.020741 
leaving -0.2338 -0.14459 0.27204 -0.047639 -0.080934 0.14405 -0.29616 -0.1907 0.29934 -0.017122 -0.065923 -0.014446 -0.20623 -0.039544 -0.050225 -0.022654 -0.19509 0.18285 -0.039847 0.042469 -0.1829 0.1258 -0.10662 -0.092976 -0.20958 0.14657 0.015873 -0.16435 -0.044024 -0.37006 -0.084622 0.048193 -0.11305 0.11517 -0.024677 -0.011109 0.028173 0.34876 0.36387 0.25376 -0.011745 -0.26165 0.17678 -0.11684 0.25314 -0.08826 0.31608 0.22005 0.052164 -0.074166 0.43194 -0.026426 -0.015912 0.23985 0.05646 0.0066483 -0.052279 -0.011563 0.11407 0.0059568 -0.37765 0.15754 -0.090166 0.1855 0.13315 -0.013146 -0.27897 -0.049427 -0.15298 -0.031738 0.19106 0.50754 -0.057673 -0.03065 0.1949 -0.08648 0.14151 0.23472 -0.11056 0.12988 -0.20796 0.45193 -0.064648 -0.075222 0.18668 0.066891 -0.073855 -0.7757 -0.24494 0.20665 0.16633 -0.15643 -0.017206 -0.01548 -0.056921 0.12652 0.32609 -0.13826 -0.60123 0.012832 
please -0.35147 -0.10858 0.34741 -0.19597 0.019094 0.14826 -0.15783 -0.083089 -0.028807 -0.19464 -0.0078096 0.037113 -0.13012 -0.086192 0.097295 -0.17313 -0.24461 0.14987 -0.061855 -0.12989 -0.12751 0.078665 -0.038318 -0.12544 -0.074691 -0.051916 0.083321 -0.27734 -0.17813 -0.16787 -0.0032503 0.20531 0.015123 0.033312 -0.096237 -0.037296 -0.10914 0.37646 0.027582 -0.031805 0.19426 0.02258 0.13361 -0.039216 0.21664 -0.095271 0.27838 0.023211 -0.069618 -0.054615 0.095163 0.049041 -0.12211 0.17421 0.051935 0.043781 -0.036304 -0.019631 0.17199 -0.19857 -0.26991 0.10741 0.053008 0.15539 -0.11289 -0.0036574 -0.14647 -0.15426 -0.20757 -0.27786 0.047857 0.53051 -0.03803 -0.15615 0.23948 0.11381 0.0020277 0.048064 0.14393 0.26552 0.15874 0.15444 -0.098743 -0.0179 0.26404 0.056223 0.00062903 -0.4554 -0.30856 0.044409 0.083969 -0.013955 0.10216 -0.11763 -0.037512 0.072907 0.26825 0.016602 -0.47123 -0.0061609 
pm -0.48574 -0.18019 0.74667 -0.4279 -0.026129 0.1721 -0.42605 -0.47521 0.28401 0.070154 -0.29071 0.021695 -0.21686 -0.050373 0.013428 -0.082827 -0.33048 0.034564 0.24404 -0.016837 0.084574 -0.14589 0.056062 -0.25506 -0.056547 0.098105 0.1854 -0.47249 -0.044082 -0.26329 -0.089561 0.024554 -0.30899 0.11558 0.25074 -0.28811 0.058236 0.36948 0.35601 0.062992 0.069661 0.14869 0.50987 -0.14907 0.55538 -0.03551 0.3105 -0.10276 0.065193 0.0044703 0.64636 0.021155 -0.36438 0.28944 0.26924 0.0089361 -0.14514 -0.027937 0.25943 -0.022857 -0.1512 0.014271 0.053222 0.46715 0.18668 0.095548 -0.25503 0.13353 -0.3171 -0.032242 0.28604 0.51236 0.13366 0.0015514 0.11404 -0.25792 0.4273 0.094937 -0.14547 0.049354 -0.079679 0.54634 -0.09623 0.043705 0.31945 -0.030552 -0.14933 -0.60952 -0.47509 0.12435 -0.081101 -0.047208 -0.083376 0.029078 -0.31242 0.13613 0.37925 -0.44218 -0.61217 -0.016333 
fly -0.27012 -0.14629 0.19186 -0.28563 0.091181 0.19782 -0.21223 -0.19867 -0.032069 0.086968 0.024734 0.19166 -0.11094 -0.37818 -0.11574 -0.12876 -0.26116 -0.1298 0.18428 0.032425 -0.36489 0.14616 0.036355 -0.12224 0.031329 -0.10574 0.10914 -0.21819 -0.13933 -0.5561 0.14294 0.14369 -0.13538 -0.033655 0.0051653 0.34061 -0.1072 0.4301 0.13927 0.25308 -0.098167 -0.065649 0.090626 -0.12686 0.52242 -0.06243 0.30045 0.071655 -0.04226 0.12568 0.09469 -0.075792 0.066344 -0.082633 -0.12326 -0.10763 -0.087551 -0.17475 0.32249 0.14807 -0.32238 -0.14968 0.056842 0.22755 0.058423 -0.097307 -0.31847 -0.24039 -0.11504 -0.14368 -0.48908 0.44535 -0.001788 -0.24844 0.10624 0.037643 0.023289 0.10792 0.20428 0.25148 0.11316 0.011748 -0.1626 -0.025775 0.20911 0.28502 0.29076 -0.41323 0.058375 -0.08238 -0.014559 0.047083 -0.14561 -0.18637 0.11823 0.30465 -0.057308 -0.16421 -0.12072 0.11504 
morning -0.33377 -0.27599 0.27584 -0.08662 0.048544 0.22054 -0.40531 0.11532 0.25229 0.13229 0.031175 0.033757 -0.088744 -0.15683 -0.060616 -0.045981 -0.29882 0.11566 0.095247 -0.026349 -0.080469 0.21483 -0.14781 0.072425 -0.022476 0.064255 0.023397 -0.21197 -0.014048 -0.56227 -0.16242 -0.061733 -0.22222 0.11492 0.16099 0.0027712 -0.11863 0.28902 0.31705 0.25284 0.12253 -0.22104 0.10531 -0.24655 0.27376 0.050372 0.24453 0.30545 0.029325 -0.015189 0.34263 0.026295 -0.038799 0.26748 0.058634 -0.0022759 0.14925 -0.102 -0.067285 0.06485 -0.44885 0.2023 -0.30974 -0.080984 0.17096 -0.11639 -0.35701 -0.14016 -0.09078 -0.013904 0.050053 0.43184 -0.053298 0.10689 0.13405 0.076779 0.08185 0.36597 0.040778 0.17348 -0.092597 0.39994 0.028615 -0.084075 0.1363 0.18295 0.05309 -0.837 -0.054485 0.18288 0.10192 -0.15282 -0.0078341 -0.18296 0.03946 0.25171 0.33944 -0.17741 -0.59801 -0.037746 
would -0.2536 -0.062232 0.52424 -0.13657 -0.01769 0.10621 -0.23084 -0.22076 -0.023423 0.16394 0.10539 0.30877 -0.20108 -0.35511 -0.034341 -0.082174 -0.42616 -0.11599 0.0021433 0.11457 -0.067832 -0.091819 0.028846 0.026142 0.19766 0.015003 0.32081 -0.52242 0.049349 -0.4804 0.18466 -0.067173 -0.38853 0.031701 0.12974 -0.050473 -0.17058 0.35823 0.19293 0.0023466 -0.024595 -0.087059 0.024792 -0.25008 0.36628 -0.0057475 0.50603 -0.12535 -0.024387 0.094555 0.093281 -0.24888 -0.10708 -0.10299 0.090709 -0.25658 0.01497 -0.0052018 0.20945 0.12779 -0.22737 0.1684 -0.16891 0.32339 0.15669 -0.23192 -0.45544 -0.11663 -0.20532 -0.01943 -0.46687 0.5875 -0.056789 -0.35975 -0.20675 0.1034 -0.079572 0.35237 0.2916 0.023233 0.070112 0.28687 -0.22154 0.090899 0.28597 0.044506 0.24566 -0.74197 -0.20763 -0.077278 -0.01722 0.12256 -0.1279 -0.18746 -0.18106 0.23317 0.15953 -0.046735 -0.45428 0.084825 
for -0.40719 -0.30605 0.42081 -0.42534 -0.028825 0.21981 -0.3587 0.01736 0.35144 0.072255 -0.090959 -0.044774 -0.36295 -0.2972 -0.31308 0.11352 -0.037483 0.22385 0.052842 0.28931 -0.1395 0.16935 -0.30695 0.23389 -0.12863 0.14757 0.094612 -0.026314 -0.060491 -0.43963 -0.11946 -0.0010821 0.028353 0.36512 0.18622 0.11337 -0.033108 0.4078 0.10785 0.18199 -0.22251 -0.022312 0.3113 0.078756 0.62779 -0.15104 0.31351 0.12071 0.073183 0.073254 0.22692 -0.08649 -0.2292 0.065814 -0.21638 -0.25722 6.123e-07 -0.058037 0.41221 -0.048884 0.073498 0.091285 -0.072458 0.13206 0.054998 -0.30981 -0.19951 0.34354 -0.6236 0.02484 -0.12037 0.46249 -0.10429 -0.082327 -0.14242 -0.16792 -0.012412 -0.053667 0.050335 0.16856 -0.51835 0.25666 -0.16104 0.016809 -0.014344 -0.18319 -0.015723 -0.41304 -0.24271 0.10833 0.098756 0.14902 -0.054126 -0.00099847 0.15063 0.19727 -0.0097534 0.05131 -0.022888 -0.08616 
fare -0.19149 -0.090447 -0.0078179 -0.071549 0.030918 0.25901 0.11122 0.052542 0.22612 -0.12735 -0.43101 0.23142 -0.041593 0.0082722 -0.20584 -0.10479 0.21419 0.19598 -0.59767 -0.0824 -0.13703 0.027617 0.30678 0.11103 -0.241 0.12744 -0.19866 0.034621 -0.29391 0.059626 -0.17641 -0.14098 0.22206 0.35429 -0.2864 0.36716 0.011117 0.64888 0.046472 -0.084117 -0.22172 0.15884 0.46255 0.15144 0.48044 -0.48604 0.56374 0.32235 -0.18585 -0.098672 -0.024814 -0.084316 0.15324 -0.1874 -0.15811 -0.076138 -0.101 -0.3716 0.45454 -0.48585 -0.53981 0.26686 0.12914 0.61136 0.097669 0.024582 -0.17321 -0.051988 -0.39249 -0.57101 0.1721 0.95809 -0.21045 -0.19086 0.43671 0.070865 -0.26161 -0.087142 0.33899 0.55614 -0.47602 0.15068 -0.19952 -0.41782 0.16456 -0.25428 0.12989 -0.43839 -0.15877 0.28339 0.55633 0.3899 0.27594 -0.1166 0.18141 0.053525 -0.11036 0.14884 -0.17856 -0.28048 
first -0.28328 -0.085438 0.23869 -0.15001 0.023758 0.086538 -0.39873 -0.18219 -0.034097 -0.1574 -0.11823 0.066128 -0.054193 -0.13951 0.11273 -0.079545 -0.025326 0.40754 -0.28548 0.10791 -0.31263 0.056505 -0.0018691 0.26213 -0.19658 -0.033862 -0.062083 -0.084342 -0.45901 -0.39656 -0.06287 0.24925 0.20107 0.068315 -0.34476 0.068998 -0.16928 0.54804 0.26778 0.1389 -0.023967 -0.11592 0.15775 0.042236 0.43697 -0.22494 0.54527 0.2628 -0.087637 0.060643 -0.22376 -0.036486 0.2533 -0.023681 -0.19117 0.16065 -0.34334 -0.0051508 0.25156 -0.13143 -0.53407 -0.05418 -0.070812 0.33613 0.0022938 0.15163 -0.0269 -0.37325 -0.036093 -0.093676 -0.1288 0.36409 -0.011732 -0.097194 0.15878 -0.026194 -0.30632 -0.062546 0.1522 0.23001 -0.11915 0.26086 -0.11533 0.10831 0.26036 0.0057681 0.16341 -0.54092 -0.024686 0.2689 0.20636 -0.26765 0.24428 0.04331 0.23835 0.3588 0.075663 0.032712 -0.54832 -0.22597 
oakland -0.3811 -0.2043 0.56142 -0.34287 0.1074 0.10036 -0.3258 -0.30257 0.13675 -0.0068085 0.049283 0.044135 -0.29653 -0.28556 -0.11283 -0.064325 -0.26267 0.14323 0.13596 0.011888 -0.29226 0.1361 -0.023941 -0.084059 -0.11403 0.027775 0.022855 -0.19063 -0.01207 -0.43306 0.053735 0.099194 -0.06877 0.077203 0.052503 0.094407 -0.04163 0.32846 0.047856 -0.027394 -0.14731 0.099261 0.18292 -0.086519 0.32818 0.011176 0.31993 -0.0024976 0.045 0.06938 0.18102 -0.13708 -0.10325 0.15239 0.0039438 0.024766 -0.18956 -0.02757 0.40691 -0.2173 0.087618 0.081397 0.11243 0.28984 -0.041531 -0.11137 -0.27348 0.13682 -0.39616 -0.27322 -0.062072 0.23583 -0.032121 -0.20639 0.081714 -0.062336 -0.0097731 0.035382 -0.061003 0.2108 -0.15862 0.10687 -0.16883 -0.0058463 0.14878 0.088602 -0.081443 -0.35677 -0.22674 0.13899 0.028701 0.12425 -0.048019 -0.1505 0.17568 -0.053301 0.22253 -0.094792 -0.23858 -0.017605 
after -0.46212 -0.39705 0.50414 -0.31736 0.18898 0.19795 -0.61562 -0.29231 0.39937 0.14574 -0.18201 0.13901 -0.25606 -0.19938 -0.099714 -0.22722 -0.15986 0.13873 0.1633 -0.0020395 0.016083 0.11866 -0.095999 -0.0088384 -0.1297 0.12102 0.057563 -0.42028 0.0024654 -0.34673 -0.24781 -0.15038 -0.30702 0.20824 0.24631 -0.26207 0.0035484 0.35368 0.55483 0.22025 -0.036594 0.0049745 0.41739 -0.13325 0.39509 0.028861 0.38912 0.21255 0.06799 0.09157 0.4641 0.15346 -0.11742 0.3316 0.10833 0.040989 -0.013428 -0.019644 0.31163 -0.036291 -0.43972 0.16352 -0.1779 0.23098 0.30399 -0.069901 -0.11821 0.024012 -0.20741 0.045389 0.40241 0.40682 0.165 0.1478 0.15692 -0.25956 0.38894 0.18964 -0.15514 0.050628 -0.35325 0.50539 0.066371 -0.06291 0.19907 -0.028039 -0.10407 -0.7578 -0.40833 0.2499 -0.11028 0.034842 -0.065028 0.021592 -0.15398 0.20218 0.39766 -0.38457 -0.79879 -0.14244 
there -0.37343 -0.46895 0.19942 -0.13204 0.15147 -0.033027 -0.33279 0.10752 0.0621 -0.042363 -0.073028 0.02403 -0.33501 -0.31555 -0.013859 -0.070861 -0.0071599 0.13194 0.048594 -0.16073 0.034962 0.39267 0.1219 -0.11525 -0.0029059 -0.13055 -0.044923 -0.42144 0.0056415 -0.42951 0.097 -0.16638 -0.094486 -0.10331 0.15012 0.24991 0.044905 0.56054 -0.019586 -0.033583 0.040837 0.22826 0.14455 -0.059508 0.093978 -0.044376 0.072438 0.17901 0.080385 0.026394 0.13824 0.072376 -0.05725 0.15979 -0.14936 -0.086339 0.23518 0.012568 0.53557 -0.44994 -0.19144 0.1037 0.1836 0.2531 0.0035526 -0.10545 -0.0043381 0.1823 -0.10424 -0.29708 -0.084537 0.25562 -0.050528 -0.28186 0.064348 0.1381 -0.043144 0.075069 0.1568 0.25312 -0.022363 -0.090154 -0.16009 -0.059647 0.16615 0.081945 0.0046903 -0.16181 -0.36609 0.40203 0.1536 0.20188 -0.0066781 -0.23394 0.12848 0.092164 0.32925 0.028235 -0.34054 -0.19373 
i'd -0.25948 -0.087549 0.24402 -0.15464 -0.047032 0.13263 -0.23555 -0.03031 0.035662 0.18358 -0.12194 0.23089 -0.17234 -0.3507 -0.12432 -0.041135 -0.26958 -0.04371 0.022209 0.19123 0.13806 0.020193 0.013866 0.22387 0.21887 0.024828 0.35612 -0.44781 -0.085749 -0.41732 0.12603 -0.1279 -0.34414 0.18699 0.22093 0.014718 -0.15296 0.43334 0.21451 0.08798 -0.027203 0.067715 0.12784 -0.13326 0.51359 -0.22775 0.46228 0.090382 -0.0792 0.11388 0.077658 -0.26561 -0.17812 -0.14412 0.014227 -0.42731 0.10489 -0.070242 0.26112 0.081079 -0.32585 0.14956 -0.089307 0.23269 0.1046 -0.20358 -0.40781 -0.19154 -0.18171 0.014493 -0.60609 0.59708 -0.056623 -0.256 -0.23537 0.074704 -0.081862 0.12596 0.34663 0.1679 -0.14032 0.33519 -0.31625 0.056026 0.21245 -0.01161 0.27745 -0.60761 -0.057736 -0.15894 -0.10727 0.16675 -0.057185 -0.15047 -0.058183 0.42887 0.077009 -0.0084519 -0.45358 0.048218 
ground -0.23947 -0.14505 0.85905 -0.096696 -0.043974 -0.14066 -0.33954 -0.23182 0.063944 -0.33393 0.21415 0.24307 -0.42539 -0.095184 0.00015772 0.19265 -0.49306 0.26498 -0.018895 0.068127 -0.30958 -0.32579 0.20397 -0.069611 0.0088189 0.16068 0.070452 -0.42249 0.065195 -0.10992 0.24897 0.082074 -0.033372 0.15305 0.21349 0.12059 0.11491 0.64636 -0.24014 -0.2266 0.11609 0.0018593 0.20675 -0.065661 -0.11097 0.14731 0.56806 -0.38447 -0.079769 -0.033304 0.083504 -0.51892 0.069586 -0.11426 0.085516 -0.03708 -0.13818 -0.23946 0.45415 -0.48975 0.098129 0.29477 -0.023481 0.30534 0.096952 -0.17455 -0.53144 0.38773 -0.74803 -0.47614 0.014894 0.46374 -0.13623 -0.20915 -0.010617 0.15626 -0.33671 0.057519 0.26167 0.22794 -0.011038 0.18632 -0.35277 -0.18955 0.25981 -0.16653 -0.060613 -0.43627 -0.21518 0.24456 0.54722 0.21519 0.083907 -0.14966 0.056998 -0.032566 0.19832 0.1087 0.13453 0.27174 
trip -0.31447 0.030177 0.35606 -0.16925 -0.21134 0.11001 -0.067979 -0.15031 0.36893 0.048767 -0.64085 0.092818 -0.34931 -0.087197 0.012077 0.093066 0.28927 0.2599 -0.31326 0.1849 0.09602 -0.14546 0.092698 0.3015 -0.10803 0.32426 0.12054 -0.16499 -0.43789 0.060918 -0.018838 -0.03987 -0.035438 0.45987 -0.15117 -0.061178 0.037727 0.42328 0.25713 -0.18031 -0.18243 0.19 0.608 0.030947 0.88644 -0.47746 0.48708 0.3908 -0.13146 0.051381 0.16782 -0.34537 -0.26271 -0.051709 0.21747 -0.18515 -0.10072 -0.28152 0.40102 -0.30721 -0.22301 0.221 -0.037833 0.69951 0.019796 0.025792 -0.36559 0.16589 -0.27797 -0.36553 -0.097373 0.76803 -0.022391 -0.045575 -0.007206 -0.10444 -0.13581 -0.021918 0.18381 0.38416 -0.67533 0.51683 -0.53934 -0.12189 0.30695 -0.47207 0.0812 -0.71495 -0.26166 0.27648 0.48912 0.13949 0.097448 -0.0094055 0.050061 0.18345 0.0042989 0.10574 -0.22025 -0.24829 
you -0.076604 0.026686 0.71848 -0.11082 0.15311 0.10789 -0.11225 -0.055317 -0.082835 -0.18765 0.28167 0.36626 -0.16382 -0.21077 0.093169 -0.056413 -0.29722 0.031886 -0.090444 0.0025749 -0.48102 -0.14875 0.12964 -0.075407 0.071121 -0.098534 0.074604 -0.22644 0.11928 -0.19456 0.19183 0.069832 -0.047795 0.13539 -0.13868 0.21575 -0.026191 0.30917 -0.072107 -0.066479 0.12429 -0.31516 -0.091115 -0.18232 0.28836 0.030943 0.41591 -0.36751 -0.0012976 -0.013935 -0.028325 -0.2155 0.069261 -0.14621 -0.13654 -0.012391 -0.035665 -0.11884 0.25963 -0.068095 -0.12802 0.24957 -0.083815 0.24873 0.018138 -0.10486 -0.48858 -0.023265 -0.37204 -0.46551 -0.1614 0.79516 -0.23523 -0.34922 0.049598 0.25026 -0.24722 0.21312 0.26132 0.1186 0.18109 0.052789 -0.27848 -0.10941 0.37273 0.17151 0.08905 -0.77107 -0.38112 0.10068 0.31694 0.13081 0.07228 -0.32554 0.052316 0.064944 0.18345 -0.076904 -0.27015 0.016035 
wednesday -0.64745 -0.42426 0.43102 -0.38532 0.27546 0.43752 -0.5942 -0.14107 0.30574 0.012175 -0.071305 0.2164 -0.014154 -0.14171 -0.0020633 -0.21664 -0.13999 0.067265 0.19606 -0.15723 -0.2804 0.13135 -0.045518 0.091226 -0.061317 -0.014895 0.036176 -0.3451 -0.13384 -0.20893 -0.1353 0.08088 -0.14996 0.23347 -0.065546 -0.03298 0.14771 0.22969 0.25118 0.11788 0.14188 -0.16453 0.34564 -0.16962 0.51302 -0.10774 0.36924 0.27765 0.077975 -0.10243 0.072539 0.16025 0.10366 0.27997 -0.037015 0.035352 -0.048006 -0.072839 0.11118 0.055585 -0.49253 0.17419 -0.16498 0.048657 0.025795 0.052064 -0.31068 -0.16822 0.069941 -0.2032 0.32678 0.32678 0.26023 0.34406 0.33509 -0.041384 0.15406 0.28246 -0.11334 0.14518 0.027167 0.4244 -0.08727 -0.14475 0.37128 0.065405 0.091059 -0.80632 -0.18914 0.28336 -0.015095 -0.084472 0.055825 -0.091028 -0.0029612 0.25639 0.33896 -0.37203 -0.66416 -0.21549 
transportation -0.24126 -0.46806 0.64171 -0.25994 0.042308 -0.046968 -0.32315 -0.082938 -0.043545 -0.25207 0.43603 0.2788 -0.23944 -0.088373 -0.048847 0.10855 -0.49103 0.2186 0.14168 0.016352 -0.40478 -0.084742 0.067176 0.037751 0.074161 -0.0023392 0.0023046 -0.23342 0.23328 -0.30092 0.33477 0.087381 0.07564 0.061215 0.41231 0.3326 0.1389 0.80414 -0.28446 0.031806 0.10005 0.027667 0.21301 0.14448 -0.17248 0.12086 0.36516 -0.14781 0.093376 0.0468 0.1217 -0.26058 0.010451 -0.069683 -0.092086 -0.036482 0.2151 -0.35134 0.46826 -0.66838 0.17957 0.29664 -0.019191 0.1806 0.043866 -0.25366 -0.37688 0.40059 -0.81505 -0.42562 -0.18455 0.39848 -0.21726 -0.2709 0.10831 0.23921 -0.17198 -0.037831 0.34069 0.49926 0.020342 0.042308 -0.086488 -0.04599 0.043789 -0.040293 -0.039258 -0.4665 -0.32786 0.10362 0.42437 0.32356 0.11647 -0.36123 0.20586 0.028926 0.30452 0.041168 0.13661 0.36217 
round -0.46286 0.037311 0.74874 -0.2126 -0.15658 0.11516 -0.3417 -0.3251 0.37403 -0.18396 -0.48337 0.066605 -0.49263 -0.052249 -0.038297 0.15727 -0.037181 0.36534 -0.27909 0.12593 -0.063563 -0.30954 0.19445 0.14638 -0.11051 0.37437 0.044664 -0.33395 -0.35092 0.18458 -0.098748 0.050852 -0.036953 0.40297 -0.081614 -0.18535 0.1541 0.39806 0.030066 -0.37369 -0.058851 0.17989 0.59558 -0.064222 0.50151 -0.24863 0.61312 -0.0078318 -0.1989 -0.069844 0.13172 -0.52295 -0.071781 -0.053122 0.25641 -0.039278 -0.343 -0.26479 0.41358 -0.30146 -0.062007 0.27428 -0.084184 0.62269 0.10034 0.027025 -0.48719 0.31328 -0.47768 -0.45725 0.27055 0.59638 0.086912 0.05079 -0.0074938 -0.13477 -0.24243 0.042962 0.052101 0.23576 -0.49642 0.51502 -0.56007 -0.28817 0.36407 -0.46736 -0.014836 -0.58313 -0.15998 0.41151 0.60849 0.15361 0.15303 0.072324 0.040414 0.070107 0.042224 0.082049 -0.048417 -0.15507 
cheapest 0.085381 0.11925 0.18385 0.0092106 0.22388 -0.055574 -0.1692 -0.10384 0.044375 -0.092685 -0.0051238 0.43734 -0.0011999 0.065226 0.1831 -0.12935 -0.05042 0.35016 -0.43208 0.11208 0.0075089 -0.10036 0.083305 0.31783 -0.138 0.095478 -0.052888 -0.1177 -0.16878 -0.39767 -0.15818 -0.068958 0.016862 0.34243 -0.32187 -0.0012562 -0.22596 0.51796 0.55999 0.13288 -0.087743 -0.081707 0.22396 -0.012488 0.3836 -0.18103 0.67303 0.2646 -0.14924 0.019762 -0.05381 -0.13241 0.18686 -0.12622 0.026007 0.075304 -0.22504 -0.12985 0.187 -0.37915 -0.71211 0.26212 -0.2986 0.39015 0.26241 -0.041431 -0.33651 -0.36948 -0.18173 -0.3305 0.063937 0.65263 -0.27041 0.0022199 0.31287 0.040004 -0.19503 0.02442 0.26843 0.24715 -0.42831 0.26148 -0.025506 0.027966 0.15627 -0.13323 0.10796 -0.67347 -0.13276 0.17967 0.14284 -0.075186 0.24986 -0.019096 -0.047132 0.22506 0.047499 -0.12849 -0.55512 -0.25555 
does -0.052494 -0.11603 0.050661 -0.56165 -0.1783 0.014057 -0.54736 -0.48752 -0.29143 0.10386 -0.41766 -0.13763 -0.29169 -0.44662 -0.32412 0.020284 -0.090174 0.11513 0.015308 -0.096128 -0.096995 0.11357 0.29543 -0.40057 -0.2643 -0.10372 0.00043954 0.27355 -0.58299 -0.28953 0.12641 -0.12303 0.36233 -0.21032 0.28924 0.35459 -0.0408 0.56407 0.20661 0.72147 -0.27977 0.37751 0.025762 0.16237 0.12972 -0.062395 -0.062201 0.18945 -0.21305 0.27686 0.20697 0.074003 0.24387 -0.040965 -0.30844 0.10705 -0.074615 -0.51606 0.3838 -0.48851 -0.16805 -0.43884 0.1368 0.29898 -0.12302 0.13883 0.2549 -0.13914 -0.35921 -0.56116 -0.20628 0.69894 -0.064722 -0.61215 0.46271 -0.082282 0.087905 -0.52656 0.36338 0.99398 -0.085359 -0.0087808 0.0075709 -0.25842 0.10589 0.3108 0.1385 -0.081193 0.28949 0.23861 0.29674 0.13935 0.16379 -0.15236 0.41401 0.37216 0.058094 -0.27171 -0.1924 0.012018 
need -0.43899 -0.11809 0.48905 -0.14882 -0.063494 0.043796 -0.43833 -0.0041269 -0.010224 0.18272 0.13059 0.031105 -0.13262 -0.26643 -0.049119 0.032328 -0.41212 0.0041758 0.093369 0.093588 0.037947 -0.066896 -0.050703 0.048945 0.11605 0.060305 0.27065 -0.42753 -0.017797 -0.47583 0.075558 0.098231 -0.26103 -0.020047 0.16308 -0.097193 -0.17569 0.36134 0.0886 -0.00084345 0.082426 -0.069867 0.079503 -0.25119 0.29064 0.086233 0.33545 0.10265 -0.036619 0.049313 0.10274 -0.22649 -0.19453 0.12243 0.16403 -0.23266 0.13252 -0.055178 0.052293 0.0037153 -0.15177 0.13612 -0.15894 0.07888 0.057764 -0.11047 -0.40626 -0.12191 -0.17701 0.035653 -0.3384 0.52387 -0.013745 -0.10903 -0.093526 0.17732 -0.036273 0.26258 0.25349 0.057802 0.14572 0.35377 -0.19097 0.11466 0.20436 0.13989 0.14233 -0.66863 -0.074902 -0.052658 -0.023149 -0.079002 -0.049075 -0.20788 -0.10199 0.20628 0.35918 0.016252 -0.46801 0.046528 
class -0.59485 -0.3182 0.063073 -0.27199 -0.15853 0.10961 -0.18034 -0.25906 -0.058261 -0.017072 -0.32158 -0.26531 -0.22845 -0.26089 -0.27069 0.047907 0.13774 0.23581 -0.29069 -0.0072399 -0.30541 0.23878 0.018086 0.08487 -0.28146 -0.052004 -0.10685 -0.12973 -0.63007 -0.096305 0.016139 0.19952 0.32799 -0.1936 -0.16137 0.027848 0.0076345 0.64042 -0.096348 0.014625 -0.21182 -0.080724 0.18427 0.023498 0.37267 -0.27771 0.31488 0.31682 -0.13978 0.16193 -0.33015 0.010701 0.24277 0.042361 -0.4079 0.18047 -0.46223 -0.12411 0.40654 -0.075403 -0.47613 -0.1028 0.18369 0.45158 -0.14496 0.085387 0.35188 -0.087558 -0.13367 -0.17892 -0.15596 0.44834 0.16394 -0.37705 0.15013 0.015909 -0.25865 -0.058318 0.17742 0.44252 -0.019791 0.25868 -0.38707 -0.13796 0.30781 0.13207 0.29683 -0.64009 0.18684 0.53185 0.43288 -0.20261 0.14788 -0.097803 0.44864 0.30092 0.17007 0.21239 -0.44913 -0.15962 
city -0.49399 0.11331 0.67277 -0.046497 -0.12089 -0.12398 -0.69727 0.075824 -0.027357 -0.28306 -0.23011 -0.11209 -0.38239 -0.094333 0.12359 0.074741 -0.33521 0.1897 -0.0082678 -0.2048 -0.082488 -0.28562 0.16524 -0.33297 -0.060419 0.095559 -0.05752 -0.31923 -0.35942 -0.21891 -0.092736 0.4196 0.23287 -0.30651 0.098964 0.18932 -0.20983 0.42585 -0.074875 -0.38932 0.26517 0.26731 0.26753 -0.48814 0.12399 0.43837 0.26165 -0.016908 -0.40937 -0.16003 0.24677 -0.30882 -0.066144 0.2983 0.59898 0.38406 -0.29732 -0.14754 -0.31906 -0.26171 -0.4287 -0.038329 0.049288 0.01312 0.18268 0.28312 -0.60094 -0.25036 -0.26408 -0.35825 0.31574 0.47188 -0.14723 0.30306 0.50501 0.29579 -0.10277 0.16393 0.41138 0.093534 0.25837 0.30834 -0.24792 -0.14962 0.63733 0.077994 0.042568 -0.52227 0.072619 0.06144 0.43458 -0.54181 0.15141 -0.090485 -0.20805 0.26054 0.25216 -0.083392 -0.47955 -0.05761 
available -0.20486 -0.43203 0.32952 -0.02917 0.16985 0.051941 -0.014344 -0.042597 0.13314 -0.18234 0.23466 0.26019 -0.096907 0.060068 -0.027471 0.028313 -0.1918 0.13495 -0.035779 -0.07565 -0.31599 0.091599 0.082461 -0.041977 -0.06301 -0.062173 -0.10428 -0.29333 0.13397 -0.25594 0.11459 -0.058128 -0.045235 0.10749 0.12572 0.27178 0.18847 0.6962 -0.071836 0.035273 0.08059 -0.11812 0.19392 0.025831 0.057026 -0.082898 0.41746 -0.098003 0.1317 -0.030508 0.11369 -0.013137 0.1127 -0.017706 -0.19753 0.0097478 0.036252 -0.086285 0.51172 -0.31547 -0.20513 0.3268 0.089195 0.32493 0.13941 -0.1383 -0.19296 0.25441 -0.46007 -0.31894 0.02086 0.35768 -0.0861 -0.26139 0.11611 0.046721 -0.12488 0.15003 0.094247 0.28486 -0.043622 0.1242 -0.12014 -0.15518 0.12514 -0.025872 0.02496 -0.62111 -0.37995 0.38332 0.41383 0.25856 0.012985 -0.2207 0.18684 0.025717 0.31558 -0.020966 -0.20834 0.096151 
with -0.46266 -0.30982 0.40856 -0.43264 0.19883 0.22029 -0.48524 0.011449 -0.13547 0.02195 -0.11107 0.10596 -0.28154 -0.5095 -0.10894 -0.0063811 0.039339 0.24114 -0.076932 0.12316 -0.21852 0.32686 0.010143 0.28267 0.044664 -0.18505 -0.055433 -0.017053 -0.1479 -0.51764 0.088414 0.027318 0.1302 0.11559 -0.16514 0.31591 -0.081219 0.33856 -0.062642 0.080211 -0.19815 0.013154 0.018348 0.011162 0.53542 -0.23621 0.16663 0.32252 -0.0028186 0.09863 -0.11002 -0.1525 0.022717 -0.13106 -0.31854 -0.10571 -0.0095041 -0.13921 0.47377 -0.24151 -0.039541 0.015706 0.04608 0.34303 -0.13462 -0.12397 0.023545 -0.036007 -0.027687 -0.23579 -0.58211 0.26883 -0.12005 -0.40674 -0.010059 0.25159 -0.29329 -0.14095 0.16596 0.27365 -0.1376 -0.19009 -0.27331 0.052713 -0.02154 0.18592 0.15627 -0.2616 -0.024102 0.22334 0.13339 0.14022 0.083354 -0.27364 0.43459 0.2449 0.041422 0.0073519 -0.20232 -0.38361 
arriving -0.39686 -0.26342 0.5063 -0.11494 -0.11952 0.016164 -0.45105 -0.24255 0.27668 0.038579 0.10395 -0.022235 -0.27923 -0.17142 -0.10446 0.008485 -0.25687 0.17455 0.014008 0.028752 -0.062206 0.16515 -0.13317 -0.15831 -0.12752 0.22249 -0.041118 -0.37548 0.18275 -0.55316 -0.049271 0.040417 -0.23532 -0.012221 0.11074 -0.14874 -0.0048933 0.33847 0.22806 0.017324 -0.083973 -0.15337 0.19024 -0.16676 0.060839 0.14962 0.22738 0.17292 0.054553 -0.027603 0.55327 -0.14524 -0.165 0.33793 0.2633 0.04622 0.016548 -0.0050469 0.10977 -0.19443 -0.12206 0.14611 -0.045024 0.27556 0.24378 -0.13601 -0.38168 0.1603 -0.24658 0.020159 0.18178 0.35112 -0.15355 -0.044583 0.20684 0.04149 0.20652 0.32612 -0.11946 -0.044093 -0.24114 0.43622 -0.10476 0.022343 0.11937 0.045021 -0.19965 -0.72233 -0.41171 0.20979 0.038965 -0.17176 -0.099326 -0.15899 -0.17666 -0.065918 0.50396 -0.090991 -0.66009 0.023078 
before -0.52262 -0.35022 0.5327 -0.39315 0.038189 0.17927 -0.39709 -0.25261 0.27429 0.039961 -0.098741 0.022016 -0.10852 -0.095472 -0.12118 -0.10117 -0.317 0.030676 0.24852 -0.051518 0.017785 0.071897 -0.10278 -0.17907 -0.069065 0.022384 0.21317 -0.37679 0.013051 -0.3247 -0.16243 -0.0058698 -0.24081 0.10682 0.29336 -0.16231 -0.030241 0.52271 0.2041 0.18769 0.12119 0.1251 0.33982 -0.11698 0.4048 0.094067 0.31432 -0.039457 0.11994 0.0020787 0.53273 0.15383 -0.30535 0.35022 0.065627 -0.056165 0.017502 0.15414 0.32749 0.041197 -0.22775 0.056554 0.074234 0.14831 0.16371 0.014339 -0.16024 0.082651 -0.41157 0.093877 0.32188 0.52295 0.0027951 -0.028328 0.18558 -0.18099 0.39159 0.09866 -0.10542 0.075066 -0.046088 0.45303 0.034179 0.0046349 0.27367 0.034986 -0.14724 -0.57889 -0.48047 0.10731 -0.16005 0.070393 -0.041022 0.033159 -0.22685 0.15744 0.43886 -0.37643 -0.78259 -0.039853 
have -0.20948 -0.19138 0.16114 -0.17204 0.078303 0.15476 -0.28375 -0.08014 -0.12124 -0.04797 -0.047971 0.16084 -0.057165 -0.4556 -0.16573 -0.12625 -0.27917 -0.08056 0.023618 -0.086351 -0.29412 0.070907 0.086292 -0.090634 0.075751 -0.15778 0.18948 -0.20437 -0.12338 -0.1816 0.13309 -0.055529 -0.14125 0.057376 -0.034151 0.21633 -0.16954 0.37721 -0.0090769 0.1653 0.076397 -0.14497 -0.14591 -0.14446 0.1155 -0.037058 0.25385 0.020738 -0.018883 0.029206 -0.16009 0.039199 0.18667 -0.11996 -0.38844 -0.17287 0.16382 -0.0024606 0.39156 0.10742 -0.43031 -0.035433 -0.042254 0.01025 -0.093318 0.04286 -0.004683 -0.35585 -0.13386 -0.24014 -0.16938 1.0254 -0.056455 -0.34183 0.16703 0.15652 -0.076746 0.094632 0.27094 0.305 0.26957 0.0090205 -0.091127 -0.21464 0.34423 0.33839 0.22989 -0.40472 -0.13161 0.025328 0.0071082 0.33896 0.15979 -0.12404 0.089969 0.30698 0.24466 -0.12566 -0.58791 -0.072475 
fares -0.41029 -0.17058 0.30324 -0.38353 0.018727 0.27105 -0.36518 -0.072806 0.20475 0.024968 -0.53349 -0.030965 -0.30984 -0.19731 -0.13664 -0.068039 0.32541 0.29616 -0.44247 0.04016 0.13419 0.18081 0.10779 0.061003 -0.22397 0.20418 -0.21453 -0.064228 -0.34616 -0.051565 -0.22593 -0.1094 0.13241 0.23465 -0.13692 -0.031648 0.07657 0.2522 0.24353 -0.010305 -0.27872 0.20235 0.43584 0.077037 0.45755 -0.38301 0.19155 0.49307 -0.1994 -0.067191 0.21188 -0.047071 -0.032925 0.026481 0.047049 -0.07205 -0.026702 -0.37128 0.31484 -0.49728 -0.33275 0.1714 -0.087867 0.51306 0.044391 0.0046793 -0.056722 0.037176 -0.17137 -0.49855 0.276 0.72453 -0.03 -0.12242 0.36002 0.0040228 0.031502 -0.093258 0.13354 0.48466 -0.52502 0.23429 -0.24902 -0.21565 0.084902 -0.20995 0.015334 -0.42565 -0.14517 0.341 0.30054 0.14474 0.2069 -0.12422 0.062497 0.12403 0.10034 -0.031439 -0.29095 -0.38446 
which -0.40337 -0.18162 0.2557 -0.44657 0.23119 0.19575 -0.49621 -0.25111 0.017461 0.11076 -0.080403 0.00014364 0.02165 -0.10885 -0.097208 -0.090585 -0.14493 0.18638 0.099777 -0.13159 -0.073912 0.16231 -0.0029142 0.0092995 -0.1463 -0.11684 -0.10613 -0.03667 -0.13421 -0.47614 -0.21435 -0.037149 -0.10326 0.086168 0.01438 -0.031813 -0.027832 0.33261 0.22142 0.21845 -0.15438 0.17444 0.23653 -0.064115 0.37363 0.018325 0.17693 0.27883 0.025049 0.05778 0.22541 0.16029 -0.018057 0.27836 -0.082425 0.16633 -0.090112 -0.11969 0.19613 -0.26195 -0.15814 -0.074807 -0.021046 0.30528 0.061857 0.075837 -0.059906 -0.083473 -0.11737 -0.14815 0.10478 0.34217 0.020869 -0.040511 0.32048 -0.046207 0.16619 -0.085302 -0.047329 0.30981 -0.082955 0.18001 0.12141 0.023532 0.071 0.25655 -0.10423 -0.38128 -0.092939 0.26615 -0.13433 0.024401 0.14178 -0.073977 0.20924 0.12449 0.29561 -0.38629 -0.62399 -0.30852 
american -0.41204 -0.24132 0.13049 -0.23593 0.028283 0.18928 -0.29999 -0.11714 -0.058624 0.11834 0.12919 0.0054779 -0.045114 -0.24947 -0.10099 -0.10001 -0.26452 0.066221 0.149 -0.21652 -0.30253 0.19319 0.088973 -0.065309 0.0020534 -0.17731 0.044116 -0.13277 -0.22529 -0.42589 0.032821 0.13044 0.021233 -0.16145 0.073424 0.14715 -0.10766 0.4089 0.021839 0.1317 0.01306 -0.010139 0.014227 -0.15687 0.27933 0.0094928 0.14815 0.14913 0.011146 0.020413 -0.043185 0.061626 0.088864 0.20751 -0.13835 0.16254 -0.080467 -0.097442 0.075723 -0.0277 -0.24631 -0.07878 0.035467 0.13617 -0.044056 0.014809 -0.2002 -0.21863 -0.12062 -0.1786 -0.17878 0.24104 0.031429 -0.10871 0.16686 0.068699 -0.041508 0.14731 0.20787 0.3206 0.18367 0.17659 -0.087633 -0.033926 0.31928 0.25523 0.25045 -0.6137 0.074303 0.16958 0.11711 -0.13668 -0.01921 -0.23766 0.24667 0.25935 0.2082 -0.088343 -0.38109 -0.025647 
afternoon -0.33823 -0.40619 0.41791 -0.29646 0.11437 0.18125 -0.43865 -0.28686 0.14679 0.12786 0.084398 0.1966 -0.032392 -0.12668 -0.096661 -0.12651 -0.40439 0.028231 0.25166 -0.058534 -0.060119 0.068898 -0.0068432 -0.046859 0.032459 -0.01525 0.11147 -0.3796 0.13741 -0.4354 -0.015814 -0.097262 -0.29898 0.038508 0.38012 -0.12034 0.058276 0.44056 0.34335 0.33112 0.076568 -0.048445 0.23886 -0.10188 0.18519 0.050993 0.29942 0.05027 0.11937 0.072983 0.43238 0.12321 -0.064035 0.20463 0.045977 0.0042676 0.10069 -0.10312 0.20432 -0.029632 -0.31556 0.12143 -0.11795 0.18822 0.26328 -0.054525 -0.20139 -0.036358 -0.24628 0.0481 0.10061 0.34601 0.049297 -0.043446 0.13654 -0.080118 0.33206 0.16413 -0.024856 0.16321 -0.029732 0.43885 0.093134 0.0124 0.136 0.14159 -0.0056701 -0.76676 -0.26988 0.081701 -0.10555 0.033715 -0.067084 -0.16031 -0.09045 0.25042 0.43863 -0.42295 -0.65176 0.107 
give -0.54658 -0.27368 0.28074 -0.14542 0.088998 0.23134 -0.16824 0.122 0.045537 -0.2241 -0.055642 0.16516 -0.082148 -0.22691 -0.013193 -0.19865 -0.13721 0.23953 -0.23596 -0.1099 -0.067097 0.19118 -0.17009 0.19381 -0.0060003 0.023574 0.058455 -0.45718 -0.089477 -0.012673 -0.072537 0.16058 -0.14214 0.22615 -0.23502 -0.15736 -0.090667 0.35025 -0.14206 -0.29135 0.19941 -0.00049005 0.22898 -0.033393 0.12644 -0.20524 0.45653 0.27818 -0.10731 -0.092788 -0.21449 0.0055382 -0.086383 0.084945 -0.042284 -0.15119 0.17042 0.068866 0.25981 -0.2398 -0.45774 0.32241 -0.0036716 0.17178 -0.090835 -0.12344 -0.22273 -0.25061 -0.11656 -0.26724 0.030804 0.77446 0.0053859 -0.0019196 0.2057 0.1833 -0.11867 0.17532 0.14611 0.18574 -0.014963 0.24644 -0.25831 -0.097339 0.27765 -0.062636 0.12283 -0.55682 -0.43088 0.10778 -0.012312 0.21039 0.25555 -0.15227 -0.042521 0.14087 0.41985 0.23054 -0.68563 -0.20866 
one -0.27221 -0.16016 -0.082525 -0.02661 0.29118 0.27024 0.042122 0.05285 0.10906 -0.0726 0.02269 0.32165 -0.0090066 -0.13736 -0.10735 -0.1659 -0.12834 0.24106 -0.31742 -0.0087862 -0.2459 0.17832 -0.1471 0.31183 -0.14777 -0.08095 0.0044159 -0.090675 -0.15051 -0.2575 -0.17907 0.017364 -0.029849 0.44052 -0.4145 0.1617 -0.17035 0.48142 0.14195 0.064473 -0.088222 -0.056855 0.25848 -0.016113 0.4043 -0.30272 0.65862 0.4211 -0.10786 -0.040374 -0.16042 -0.094492 0.097508 -0.037265 -0.16547 -0.099863 0.011226 -0.036628 0.31371 -0.19178 -0.65184 0.38587 -0.017489 0.2129 -0.0091526 -0.12812 -0.23301 -0.31323 -0.27988 -0.29139 -0.09459 0.86402 -0.17297 0.011786 0.41707 0.11398 -0.30119 0.17292 0.13819 0.40577 -0.34638 0.16782 -0.10006 -0.15458 0.13263 -0.064471 0.16499 -0.50825 -0.18021 0.22809 0.13229 0.34141 0.22957 -0.012932 0.19427 0.054457 0.1096 0.16417 -0.39539 -0.36931 
want -0.21793 0.0013656 0.54276 -0.21711 0.2655 0.056633 -0.45636 -0.16184 -0.071007 0.1761 -0.0027727 0.43529 -0.12518 -0.34212 0.10464 -0.084897 -0.27592 0.030189 0.062294 0.1981 0.014796 -0.11502 0.1077 0.33662 0.21418 -0.0087723 0.18151 -0.33581 0.081779 -0.50432 0.13422 -0.057256 -0.39275 0.28159 0.082186 0.018217 -0.1104 0.28846 0.32837 -0.0011158 -0.12744 0.082508 0.16199 -0.16715 0.54963 -0.1006 0.46526 0.17213 -0.031762 0.099986 0.058274 -0.35422 -0.093123 -0.12255 0.1757 -0.28202 0.10961 -0.1381 0.25538 -0.24858 -0.19283 0.23917 -0.27551 0.34743 0.075 -0.076734 -0.45869 -0.20538 -0.096264 -0.20328 -0.43792 0.53907 -0.079256 -0.028958 -0.091943 0.14566 -0.019831 0.053494 0.17544 0.11622 -0.22818 0.10073 -0.16363 0.19776 0.091936 0.075968 0.12153 -0.52268 -0.13902 -0.13294 -0.14791 0.099076 0.079283 -0.24218 -0.063339 0.20721 0.18228 -0.27602 -0.34325 -0.12717 
at 0.034177 -0.067353 0.49049 -0.19915 0.1194 -0.2297 -0.30767 -0.27382 -0.14871 -0.051001 0.48758 0.062617 -0.060814 0.11445 0.10513 -0.14835 -0.32878 0.10295 0.16766 -0.11998 -0.16587 -0.020618 0.080148 -0.11318 -0.013929 -0.099483 -0.29738 -0.57256 0.26457 -0.65444 0.13771 0.10923 -0.17277 -0.42921 0.39569 -0.12618 0.020034 0.73157 -0.005914 -0.084781 0.017401 0.18829 0.27579 -0.073357 -0.1295 0.24499 0.40542 -0.022998 0.073352 0.12185 0.25727 0.074241 -0.15075 0.34689 0.12507 0.2879 0.11338 -0.26328 0.28234 -0.76346 -0.03557 0.10968 0.052512 0.52768 0.28529 -0.047767 -0.3549 0.26341 -0.46483 -0.20154 0.14 0.247 0.0042519 -0.095348 0.20033 0.13465 0.2467 0.098131 0.27344 0.23889 0.1915 0.23918 0.18433 0.26366 0.18561 0.10209 -0.24109 -0.58288 -0.45434 0.10788 0.00038196 -0.079927 0.19962 -0.3453 -0.054728 -0.10214 0.60286 -0.10489 -0.41722 0.23529 
new -0.82847 -0.0074083 0.35121 -0.43627 -0.2086 0.2979 -0.43289 0.11757 0.024506 -0.023305 -0.47938 -0.34101 -0.21647 -0.19539 -0.068599 -0.040618 -0.084635 0.38075 -0.12305 -0.15996 0.055482 -0.033703 -0.16447 0.12466 -0.20991 0.17213 0.082729 -0.27164 -0.65709 0.028835 -0.3027 0.41211 0.16468 -0.04729 -0.10563 -0.33988 -0.2008 0.30959 -0.19458 -0.31248 0.25037 0.37193 0.56063 -0.1863 0.48173 -0.06142 0.35275 0.5574 -0.3228 -0.014066 -0.10225 0.032876 -0.39491 0.46358 0.31837 0.1538 0.044718 -0.26797 -0.13981 -0.31309 -0.25422 0.045972 0.038371 0.13565 -0.15372 0.16419 -0.28785 -0.2062 -0.17111 -0.27975 0.20037 0.6608 0.24649 0.3185 0.23815 0.077055 -0.057728 0.050767 0.31114 0.48989 0.10914 0.54012 -0.29304 -0.089599 0.38161 -0.15591 0.10861 -0.53551 0.015687 0.11446 0.25067 -0.17703 0.33356 -0.076557 0.15242 0.23722 0.4022 0.37009 -0.47739 -0.36662 
DIGITDIGITDIGIT -0.1805 -0.11945 0.68082 -0.59742 -0.092422 0.19241 -0.29358 -0.48038 0.18226 -0.23204 -0.67445 0.42964 -0.12793 -0.18172 0.25802 0.38147 -0.15407 0.37324 0.37874 0.23094 -0.12558 -0.50582 -0.143 -0.1508 -0.13389 -0.013563 0.29985 0.21922 -0.39284 -0.60998 0.31401 0.18349 0.20884 0.44039 0.12889 0.48133 0.047133 0.48241 0.50346 0.73685 0.33251 0.4683 0.57511 0.020328 1.1899 -0.1953 0.098596 -0.17389 0.00077842 0.0063022 0.96078 0.18813 -0.49597 0.042225 0.35813 0.17918 -0.086641 0.19161 0.048747 0.24678 0.18123 -0.30435 0.55735 0.39353 0.25212 0.38571 -0.15037 0.047717 -0.45679 0.094246 -0.24859 0.065417 -0.45095 -0.1459 0.075887 -0.37265 0.27682 -0.3446 -0.039519 0.24791 -0.43481 0.38065 -0.22436 0.40856 0.32521 -0.65427 -0.10848 -0.31117 -0.62815 0.1242 0.53681 -0.15265 -0.28685 0.39791 -0.08597 0.50655 0.13868 -0.46134 0.065273 -0.48866 
way -0.13645 0.034123 0.11029 -0.10241 0.24106 0.1773 -0.18746 -0.1947 0.094284 -0.021018 -0.24964 0.52603 -0.022905 -0.14816 -0.03039 -0.22973 -0.037721 0.050982 -0.16911 -0.046755 -0.2622 -0.1366 0.23538 0.36513 -0.039611 0.015061 0.12929 -0.21034 -0.21902 -0.01666 -0.012174 -0.079322 -0.091463 0.41994 -0.28829 0.13405 -0.030967 0.37306 0.31256 -0.0014513 -0.12375 -0.090068 0.32447 -0.055482 0.62828 -0.28904 0.70891 0.26278 -0.11817 0.012915 -0.31759 -0.092941 0.30515 -0.11887 -0.18997 -0.036681 -0.24693 -0.23682 0.19171 -0.091086 -0.70578 0.21511 -0.15699 0.36827 0.065375 0.027 -0.35495 -0.37323 -0.039415 -0.43055 -0.052263 0.68175 0.074825 0.17144 0.24743 0.057205 -0.25137 0.080267 0.28145 0.24047 -0.20011 0.21391 -0.24157 -0.2102 0.45005 -0.029069 0.26825 -0.62303 0.014753 0.13747 0.11308 0.071637 0.2291 -0.069033 0.091017 0.30202 -0.096595 -0.127 -0.46779 -0.30279 
leave -0.37514 -0.32738 0.41103 -0.272 0.1093 0.24462 -0.40783 -0.29292 0.15601 -0.038774 -0.16697 0.16234 -0.036523 -0.11974 -0.036828 -0.23812 -0.32058 0.074904 0.073243 -0.067443 0.038088 0.078785 -0.027371 -0.079136 0.004664 0.04398 0.14988 -0.52172 0.045471 -0.1572 -0.037066 -0.036623 -0.37338 0.15325 0.17659 -0.26788 0.036654 0.4746 0.28988 0.19942 0.20203 -0.03537 0.33855 -0.073436 0.15315 -0.165 0.40778 0.15654 0.059661 -0.081908 0.35039 0.18375 -0.11593 0.11953 -0.006378 -0.16053 0.22036 0.083268 0.43736 -0.073964 -0.51464 0.15943 -0.079672 0.20935 0.14677 0.080354 -0.10254 -0.19854 -0.14733 -0.040229 0.36544 0.84002 0.10858 -0.02642 0.20646 -0.1285 0.45043 0.10967 -0.06495 0.12508 0.01001 0.46769 0.056941 -0.015358 0.21011 0.047672 -0.044878 -0.61828 -0.48303 0.0065583 -0.24714 0.20508 0.14834 0.00071116 -0.31576 0.2422 0.59411 -0.35967 -0.90479 -0.0051287 
york -0.87554 -0.090394 0.45291 -0.51666 -0.20338 0.39263 -0.32448 0.19771 0.088563 -0.074858 -0.61542 -0.27285 -0.233 -0.25846 -0.1043 -0.12189 -0.029613 0.38065 -0.16201 -0.089177 0.071457 0.0553 -0.21212 0.37715 -0.094973 0.23727 0.085053 -0.37482 -0.65564 0.11384 -0.24452 0.34177 0.084571 0.047039 0.0037015 -0.34187 -0.12795 0.37327 -0.30648 -0.40977 0.31212 0.43512 0.60073 -0.14425 0.57533 -0.18091 0.34903 0.45709 -0.3234 0.026559 -0.16051 0.026579 -0.54627 0.31627 0.26163 0.0050863 0.14966 -0.21071 -0.026091 -0.29589 -0.1668 0.15102 -0.040855 0.18572 -0.2044 0.05445 -0.33198 -0.11345 -0.18871 -0.25734 0.10691 0.71075 0.24714 0.28034 0.040646 0.05456 -0.037393 0.0085937 0.25334 0.47642 -0.053767 0.55175 -0.45001 -0.087843 0.35913 -0.3091 0.16229 -0.61815 -0.11879 0.10203 0.23581 -0.095436 0.36606 -0.16799 0.14348 0.3389 0.37128 0.39992 -0.42556 -0.32367 
arrive -0.6336 -0.40517 0.5325 -0.33935 -0.041843 0.11259 -0.52112 -0.24166 0.12882 -0.016652 -0.11492 0.025974 -0.13253 -0.23332 -0.13307 -0.19144 -0.26256 0.16858 -0.00128 -0.11921 0.24505 0.15366 -0.079032 -0.033916 0.04818 0.19439 0.026807 -0.74021 0.12451 -0.26423 -0.09537 0.01926 -0.38669 -0.014015 0.25179 -0.50129 -0.048231 0.46788 0.036625 -0.22217 0.12724 0.21007 0.46033 -0.098305 -0.027123 0.040135 0.32993 0.26892 -0.046513 -0.011888 0.37416 0.030083 -0.33159 0.29434 0.27421 -0.033527 0.2482 -0.0057967 0.31427 -0.40283 -0.25904 0.14779 0.0073441 0.35497 0.24431 -0.059556 -0.20042 0.012365 -0.24239 -0.010342 0.37047 0.61303 0.046512 0.060896 0.2515 0.058243 0.41748 0.1912 0.018438 0.011221 -0.10344 0.51586 -0.076891 0.057868 0.15276 -0.076585 -0.13733 -0.54812 -0.56973 0.065201 -0.26674 0.097832 0.14552 -0.16374 -0.35958 0.062248 0.74628 -0.092392 -0.95693 -0.087608 
dc -0.4187 -0.36097 0.38488 -0.33713 0.20075 0.37964 -0.3379 -0.11275 0.10087 -0.024977 0.06068 0.24927 -0.15315 -0.31739 -0.079443 -0.13902 -0.23581 0.031436 0.22691 -0.050298 -0.40724 0.20238 -0.1029 0.048115 0.041104 -0.13963 0.0724 -0.14584 -0.0070561 -0.26932 0.12206 0.12147 -0.068135 0.13648 0.10576 0.15876 0.099178 0.21462 0.038651 0.1567 0.061584 -0.039163 0.12144 -0.092134 0.42043 -0.11065 0.28576 0.098415 0.087345 -0.030232 0.077035 0.051312 0.02916 0.11497 -0.15013 -0.098571 0.071221 -0.055842 0.26056 0.054378 -0.14438 0.17819 0.017566 0.070359 -0.082839 -0.12448 -0.23558 -0.07743 -0.23334 -0.18775 -0.14277 0.26813 0.10497 -0.048853 0.058532 0.0046144 0.066528 0.12685 0.006893 0.26483 -0.00090885 0.14806 -0.084688 -0.051731 0.22637 0.10179 0.14282 -0.63293 -0.22949 0.073798 0.10508 0.1706 -0.065749 -0.2271 0.20457 0.24408 0.26514 -0.20842 -0.31512 -0.049014 
earliest 0.068316 -0.12533 0.13067 -0.042564 0.26074 -0.10022 -0.42784 -0.14523 -0.12281 -0.018705 0.061522 0.45607 0.1082 -0.13684 0.17127 -0.1761 -0.26696 0.25058 -0.17429 0.0059702 0.092272 -0.0025183 0.21191 0.15021 0.001325 -0.06479 -0.011374 -0.21477 -0.15711 -0.71797 0.036882 -0.16231 -0.035714 0.036926 0.05237 0.089325 -0.26035 0.63441 0.70264 0.4651 0.056499 -0.001227 0.016464 -0.048977 0.15782 -0.099241 0.48874 0.22682 -0.082576 0.081993 0.012093 0.079387 0.32659 -0.15451 -0.1381 0.061346 -0.075452 -0.057087 0.2037 -0.30718 -0.80537 0.018023 -0.28151 0.17168 0.29055 0.062277 -0.086916 -0.61026 -0.056535 -0.16858 -0.0361 0.44789 -0.20066 -0.15075 0.23956 0.0085664 0.024476 -0.067388 0.37685 0.26235 -0.15438 0.18912 0.20731 0.15079 0.1319 0.090278 0.23998 -0.54623 0.03606 0.069479 -0.04008 -0.1865 0.16463 -0.10235 -0.058931 0.49353 0.1943 -0.35128 -0.69218 -0.087079 
thursday -0.61793 -0.44795 0.48471 -0.31812 0.22828 0.36281 -0.54448 -0.076636 0.33082 0.032865 -0.17936 0.21981 -0.056888 -0.11438 0.045969 -0.13836 -0.11363 0.027138 0.19484 -0.11627 -0.050683 0.11542 -0.023659 0.034478 0.022548 -0.0014652 0.074121 -0.42632 -0.069506 -0.24637 -0.11021 -0.017386 -0.26321 0.18364 0.088166 -0.059489 0.16808 0.30406 0.28546 0.11931 0.20063 -0.081303 0.37364 -0.20203 0.54195 -0.13039 0.29098 0.20154 0.098668 -0.12304 0.2965 0.17455 -0.056407 0.25076 0.051309 -0.029081 0.075767 -0.028218 0.21348 0.061126 -0.47203 0.16377 -0.12674 0.14114 0.11291 0.085897 -0.27957 -0.092903 0.057806 -0.11009 0.28451 0.35827 0.20266 0.24999 0.19325 -0.058779 0.24137 0.22859 -0.086214 0.085136 0.028845 0.46197 -0.10934 -0.086571 0.33762 0.011431 0.067032 -0.80332 -0.30301 0.24684 -0.024931 -0.078424 0.016697 -0.089002 -0.1007 0.32859 0.37357 -0.41827 -0.74055 -0.18956 
go -0.3714 -0.096092 0.4075 -0.3711 0.30263 0.38336 -0.51726 -0.089953 0.00088581 0.046516 0.10247 0.25342 -0.038108 -0.27893 -0.099416 -0.18862 -0.37648 0.08914 0.2499 -0.0017233 -0.29321 0.068436 -0.061813 0.12706 0.045413 -0.03502 0.046728 -0.24189 -0.081896 -0.42184 -0.0057729 0.13071 -0.17924 0.20986 0.11519 0.068341 -0.037321 0.20731 0.12283 0.14604 -0.0055901 -0.030245 0.14937 -0.17484 0.39927 -0.031952 0.34383 0.27345 -0.034796 -0.059744 0.12402 -0.117 -0.0024169 0.035264 0.048412 -0.15271 0.11276 -0.18412 0.16038 -0.02375 -0.258 0.13866 -0.16855 -0.045728 -0.028529 -0.027817 -0.4995 -0.24308 -0.13337 -0.23674 -0.056541 0.51439 0.049107 0.13777 0.26468 0.057726 0.15509 0.055074 0.084542 0.28873 0.029826 0.17777 -0.0092398 -0.018618 0.12547 0.11659 0.073659 -0.55431 -0.02032 -0.14107 -0.1414 0.19949 0.09481 -0.18626 0.036999 0.22628 0.27218 -0.33843 -0.31777 -0.023281 
monday -0.61791 -0.40232 0.41992 -0.37393 0.20074 0.4247 -0.51204 -0.067059 0.19091 0.11577 -0.0013478 0.25288 0.077029 -0.19606 -0.16028 -0.079678 -0.28097 0.060905 0.17733 -0.084049 -0.21511 0.024416 -0.12742 0.25528 0.04019 0.040293 0.074267 -0.31104 -0.080005 -0.2723 -0.1018 0.030093 -0.2078 0.2156 0.13937 -0.11436 0.082579 0.2861 0.049177 0.06046 0.16098 -0.11343 0.34676 -0.19283 0.42655 -0.027291 0.38167 0.28988 0.03182 -0.038587 0.038023 0.087692 -0.012739 0.19747 -0.018541 -0.0092801 0.11357 -0.21675 0.078624 0.031669 -0.31985 0.17226 -0.23452 0.013507 0.086107 0.0010542 -0.32869 -0.10322 -0.10041 -0.090469 0.15151 0.3677 0.14616 0.32244 0.16332 0.062307 0.084767 0.22583 0.0080621 0.16623 0.11633 0.45689 -0.054803 -0.10638 0.21863 0.022894 0.088608 -0.75646 -0.03981 0.14287 0.0007652 -0.012362 0.13335 -0.17859 0.10054 0.26056 0.35516 -0.24741 -0.52106 -0.14477 
united -0.38112 -0.22684 0.41472 -0.36582 -0.018167 0.16706 -0.51333 -0.41983 -0.051527 0.0062944 0.085851 0.015384 -0.19941 -0.33935 -0.14373 -0.09635 -0.2767 0.11797 0.095673 -0.057882 -0.39296 0.20589 0.12196 -0.16799 -0.079079 -0.11798 0.085442 -0.10119 -0.15334 -0.46647 0.13449 0.1418 0.076873 -0.11364 -0.057634 0.16279 -0.060571 0.35774 0.12518 0.27395 -0.12446 -0.082376 -0.066391 -0.010506 0.23254 -0.0013651 0.20379 0.0047275 0.046382 0.096342 0.067258 -0.045005 0.18341 0.059337 -0.25185 0.044839 -0.25738 -0.024074 0.29146 0.023009 -0.088276 -0.16396 0.098979 0.25478 -0.067108 0.0011983 -0.0927 -0.12981 -0.15818 -0.14417 -0.2278 0.24452 0.0081238 -0.41274 0.16529 0.0047561 -0.05458 0.028462 0.047111 0.22629 0.06496 0.068791 -0.11297 0.024785 0.24182 0.31961 0.08798 -0.42333 -0.05365 0.17047 0.047444 -0.015018 -0.075258 -0.12546 0.16173 0.19948 0.16603 -0.18319 -0.40669 -0.01329 
airport -0.32196 -0.47946 0.75091 -0.20638 -0.016957 -0.17552 -0.40053 0.045138 -0.16331 -0.31399 0.42691 -0.031282 -0.30738 -0.25078 0.040747 -0.010745 -0.41486 0.26702 0.14634 0.066597 -0.54408 -0.033453 -0.12845 -0.16803 -0.074451 -0.075178 -0.13441 -0.25736 0.0052183 -0.26459 0.25519 0.31271 0.20803 -0.22404 0.26888 0.30748 -0.075999 0.87942 -0.52007 -0.072872 0.2464 0.092971 0.10566 0.040577 -0.28107 0.35462 0.41566 -0.13969 -0.027562 0.14764 -0.092792 -0.10595 -0.037353 0.10218 -0.10847 0.14303 0.23268 -0.16042 0.54613 -0.64755 0.095747 0.14722 0.10721 0.020993 -0.062271 -0.21656 -0.18083 0.28208 -0.76132 -0.36897 -0.20641 0.48212 -0.069821 -0.35819 0.081604 0.22884 -0.25357 -0.032206 0.40618 0.5238 0.31864 -0.073335 -0.072196 0.0093713 0.16043 0.076636 -0.039678 -0.30718 -0.40787 0.19433 0.45581 0.22283 0.23013 -0.28534 0.35017 0.045092 0.4924 0.38912 -0.067026 0.27867 
tuesday -0.60194 -0.3568 0.36689 -0.27151 0.14495 0.37951 -0.47678 -0.044611 0.32803 0.051119 -0.24895 0.22554 -0.021975 -0.093967 0.022919 -0.11505 -0.052806 0.06188 0.080028 -0.099228 -0.063017 0.013884 -0.029772 0.1627 -0.0067715 0.070191 0.12881 -0.3783 -0.23506 -0.07466 -0.13585 -0.0018589 -0.18525 0.27048 -0.014247 -0.099845 0.1408 0.27299 0.26915 0.087028 0.21006 -0.13575 0.39638 -0.19087 0.57626 -0.20009 0.37518 0.27355 0.012887 -0.11128 0.074818 0.13315 0.020354 0.20499 0.038581 -0.040861 0.024206 -0.10798 0.086205 0.089968 -0.57516 0.18453 -0.20879 0.088929 0.057255 0.086463 -0.3116 -0.1701 0.10336 -0.15747 0.26194 0.4354 0.23998 0.34801 0.19669 -0.05109 0.10478 0.25902 -0.006976 0.1423 -0.0051036 0.56289 -0.19926 -0.16756 0.40721 -0.092754 0.17011 -0.87619 -0.14725 0.27532 0.07896 -0.11683 0.07703 -0.050826 -0.06329 0.36644 0.28421 -0.2833 -0.6569 -0.2082 
nonstop -0.61535 -0.19333 0.46718 -0.40542 0.024692 0.25387 -0.5168 -0.074368 -0.017427 -0.12385 -0.29203 0.13425 -0.085911 -0.22642 -0.042398 -0.15643 -0.28978 0.33093 0.070671 -0.054772 0.034139 -0.046781 -0.080775 0.31962 0.087706 0.08155 0.17813 -0.37432 -0.26324 -0.041914 -0.092247 0.19958 -0.086893 0.1339 0.19524 -0.32789 -0.081234 0.30874 0.032749 -0.10845 0.28132 0.29322 0.42331 -0.078603 0.30089 -0.086001 0.37077 0.26159 -0.16391 -0.0038847 0.017381 0.032344 -0.26904 0.16983 0.13069 -0.009769 0.11724 -0.069293 0.062343 -0.15655 -0.26213 0.11932 -0.06957 0.047396 0.0054792 0.1416 -0.19841 -0.31883 -0.24867 -0.10294 0.10453 0.47681 0.14128 0.22476 0.056237 -0.01735 0.10725 -0.070631 0.15734 0.27047 -0.04821 0.47135 -0.17805 0.097054 0.28868 -0.11996 0.041502 -0.52717 -0.1939 -0.089272 -0.084137 0.0013141 0.27391 -0.090535 0.010286 0.45949 0.48758 -0.066576 -0.6532 -0.17341 
how -0.18059 0.056246 0.38251 -0.29565 -0.21087 0.017593 -0.416 -0.02819 -0.27002 -0.10562 -0.12876 -0.037802 -0.25454 -0.4302 -0.0010888 0.16728 -0.14857 0.21112 -0.10742 -0.016184 -0.42117 -0.16764 0.15753 -0.13969 -0.17151 -0.13725 0.074997 0.11716 -0.33847 -0.092556 0.19929 0.21347 0.29905 0.074784 -0.14497 0.52935 -0.1719 0.39223 -0.19564 0.1125 -0.036229 0.1254 -0.047048 0.045168 0.17671 0.081204 0.33115 0.013551 -0.15709 0.19078 -0.26061 -0.18744 0.18163 -0.022801 -0.17084 0.13062 0.013511 -0.42854 0.14876 -0.36002 -0.052346 -0.12916 0.1205 0.22591 -0.1526 0.058042 -0.20426 -0.047828 -0.4016 -0.56154 -0.52007 0.86709 -0.18827 -0.37902 0.24614 0.30362 -0.52086 -0.19532 0.53065 0.65081 0.16133 -0.029584 -0.28967 -0.24237 0.40387 0.25076 0.19201 -0.28062 0.013714 0.10585 0.58058 0.12895 0.27118 -0.24796 0.50577 0.18528 0.023486 0.18494 -0.14126 -0.065981 
DIGITDIGIT -0.20228 -0.16795 0.70712 -0.60295 -0.07432 0.21231 -0.31949 -0.50771 0.19726 -0.21466 -0.58549 0.42793 -0.07887 -0.13298 0.24251 0.33722 -0.23087 0.32851 0.43601 0.19149 -0.11894 -0.48882 -0.14819 -0.17304 -0.10486 -0.018154 0.30144 0.13371 -0.29899 -0.62072 0.29088 0.17556 0.13162 0.40791 0.18801 0.40327 0.066036 0.48569 0.50298 0.73205 0.35801 0.42754 0.58185 0.0091169 1.106 -0.14548 0.11175 -0.20199 0.039139 -0.0067385 1.0136 0.21301 -0.50529 0.093451 0.37106 0.18096 -0.061966 0.2059 0.034201 0.2603 0.16647 -0.27526 0.52636 0.37003 0.29529 0.36786 -0.18954 0.060913 -0.46181 0.14279 -0.15853 0.067668 -0.41152 -0.10253 0.10763 -0.37107 0.35953 -0.27576 -0.075394 0.20152 -0.3729 0.43221 -0.16338 0.41051 0.32489 -0.60184 -0.14055 -0.36943 -0.66759 0.10532 0.44151 -0.14836 -0.28985 0.37831 -0.15233 0.48038 0.21792 -0.52385 -0.038431 -0.42586 
information -0.25187 -0.36298 0.3793 -0.28308 -0.0031101 0.12133 -0.22525 -0.049966 0.055012 0.050671 0.36423 0.20995 -0.097144 -0.10589 -0.13088 0.078667 -0.35628 0.073843 0.15763 0.11907 -0.18711 0.06787 -0.12334 0.22614 0.13398 -0.0059847 0.092508 -0.20988 0.23404 -0.49513 0.21394 0.0087957 -0.091071 0.11059 0.36656 0.14744 0.10488 0.5716 -0.031596 0.18472 0.0030719 -0.033216 0.1791 0.067942 0.18339 -0.028183 0.28537 0.066435 0.1545 0.095293 0.23654 -0.1898 -0.13968 0.034124 -0.017602 -0.19317 0.28104 -0.26407 0.24713 -0.27314 0.10765 0.28161 -0.10036 0.20359 0.12242 -0.33009 -0.40256 0.24793 -0.50449 -0.051421 -0.37117 0.21189 -0.16268 -0.18891 -0.058687 0.15664 0.027365 0.088467 0.17753 0.30235 -0.12637 0.24771 -0.087876 0.086057 -0.03303 -0.016333 0.048832 -0.69458 -0.22379 -0.027093 0.18333 0.16749 -0.061779 -0.33027 0.10957 0.13941 0.25079 -0.05201 -0.06456 0.25043 
st. -0.6222 -0.2766 0.83216 -0.23239 0.16556 0.095202 -1.1783 0.14925 -0.033051 -0.22189 -0.15876 0.39449 -0.20188 -0.46121 0.20338 -0.10486 -0.66766 0.46827 0.15292 -0.01081 0.22548 -0.11255 0.074464 0.22229 0.25893 0.06594 0.30189 -0.37449 -0.15698 -0.56595 -0.14958 0.02824 -0.13021 0.26731 0.36274 -0.069874 -0.42637 0.36681 0.42442 0.16423 0.46345 0.29019 0.12663 -0.26556 0.10753 0.23544 0.42344 0.13042 -0.21521 -0.039317 0.19505 -0.16281 -0.013222 0.027351 0.2657 0.032169 0.16709 0.023215 -0.09227 -0.2039 -0.55053 0.058228 -0.40812 -0.38908 0.16876 0.20303 -0.38521 -0.67562 -0.25734 -0.15471 0.099538 0.54154 -0.26774 0.31939 0.17162 0.14748 -0.071385 -0.097308 0.40371 0.18746 -0.024066 0.33788 0.0719 0.13295 0.33691 -0.021262 0.093211 -0.39338 -0.084237 -0.1812 -0.17388 -0.20194 0.31682 -0.053551 -0.14539 0.65477 0.38498 -0.34889 -0.91355 -0.19537 
am -0.34414 -0.27795 0.27571 -0.29057 -0.15155 0.19111 -0.19197 -0.36675 0.17655 0.19739 0.022612 -0.041266 -0.073548 -0.058059 -0.1755 -0.12158 -0.34361 -0.062524 0.32296 -0.082098 -0.074506 0.10443 -0.069103 -0.15135 0.045845 -0.017713 0.13018 -0.48582 -0.019565 -0.40406 -0.046901 0.0057608 -0.34054 -0.14181 0.41626 -0.2944 0.038741 0.47832 0.20786 0.23206 0.090368 -0.0046429 0.30059 -0.16819 0.35055 0.028538 0.27398 0.04718 0.09854 0.10698 0.52252 0.13121 -0.28186 0.34447 0.063337 0.0805 0.035227 -0.07193 0.12462 0.15292 -0.23832 -0.00084933 0.059763 0.33617 0.27274 -0.047226 -0.265 0.063092 -0.30212 0.15575 0.027674 0.3394 0.20928 -0.058504 0.047101 -0.23379 0.42052 0.30382 -0.0088879 0.16355 0.019993 0.64642 -0.05425 0.023685 0.2937 0.097334 0.065021 -0.87408 -0.29351 0.12585 -0.068298 -0.087733 -0.13709 -0.13433 -0.083222 0.26319 0.45497 -0.22794 -0.63759 0.16338 
milwaukee -0.73218 -0.30589 0.38055 -0.13886 0.23089 0.34546 -0.41017 0.23869 0.17143 0.049819 -0.045416 0.045056 -0.10246 -0.24817 0.068496 -0.18331 -0.249 0.16174 0.11221 -0.15456 -0.13871 0.22729 -0.23305 0.067018 -0.036254 -0.030502 0.025623 -0.25002 -0.23533 -0.39727 -0.25255 0.20036 -0.14528 0.19834 -0.12818 -0.010028 -0.21658 0.24548 0.016607 -0.1349 0.22125 0.04177 0.24319 -0.31449 0.46471 0.018483 0.31469 0.39768 -0.080026 -0.096198 0.052915 0.036169 -0.16437 0.35952 0.2399 0.083924 0.13015 -0.00018397 0.032961 -0.059776 -0.4383 0.21353 -0.10611 -0.094448 -0.095841 -0.04021 -0.41468 -0.29294 -0.018814 -0.21876 0.065352 0.4744 0.024152 0.30589 0.2971 0.10675 -0.078802 0.307 0.066798 0.26824 0.089008 0.27334 -0.09755 -0.084692 0.28281 0.10886 0.1017 -0.61656 -0.16952 0.19166 0.012125 -0.014373 0.091048 -0.15566 0.13106 0.14305 0.35623 0.025059 -0.59437 -0.32099 
can -0.13075 0.057062 0.67906 -0.29397 0.046371 0.066408 -0.35264 -0.15467 -0.23472 0.16894 0.25197 0.039836 -0.31455 -0.33092 0.016056 0.014998 -0.33671 -0.11905 0.067428 -0.1225 -0.37156 -0.24582 0.34189 -0.3788 0.10614 -0.1176 0.088509 -0.033971 -0.054678 -0.24216 0.29384 0.015681 0.051867 -0.1306 0.13072 0.28126 -0.21662 0.18148 -0.043021 0.013383 -0.068406 -0.10399 -0.10507 -0.31127 0.27097 0.17474 0.064666 -0.21935 -0.073211 0.013821 0.057888 -0.23186 0.003145 -0.011721 0.018201 0.067345 -0.020698 -0.47642 0.16491 -0.16377 0.16214 0.084984 -0.1765 0.22946 -0.12076 -0.04933 -0.32846 0.039655 -0.4301 -0.62118 -0.24623 0.72119 -0.1296 -0.44136 0.072873 0.35984 -0.12116 0.094548 0.4886 0.36587 0.34481 -0.066238 -0.15138 -0.12432 0.29752 0.30728 0.1349 -0.6124 0.030042 -0.034181 0.40141 0.19032 -0.053665 -0.39492 0.064886 -0.052297 0.1341 -0.19629 0.057713 0.10441 
find -0.22061 -0.065792 0.36387 -0.038469 -0.23908 -0.018796 -0.30467 -0.19683 0.18096 0.020796 -0.13058 0.048546 -0.34483 -0.22367 -0.14148 -0.0048112 -0.31869 0.13831 -0.094008 0.20776 0.095695 -0.036524 0.015083 0.1678 0.046155 0.27648 0.26174 -0.52626 -0.117 -0.42269 0.14311 -0.045407 -0.23637 0.11465 0.21873 -0.13324 -0.087135 0.42835 0.22869 -0.081596 -0.095789 -0.024285 0.19886 -0.026846 0.19214 -0.20926 0.43123 0.060694 -0.070834 0.089154 0.19269 -0.41006 -0.17019 -0.083869 0.1205 -0.38171 -0.0036754 -0.07255 0.33261 -0.13239 -0.15175 0.14338 -0.12756 0.28065 0.064846 -0.19693 -0.38381 0.05399 -0.24725 0.026885 -0.31639 0.5023 0.010441 -0.25646 -0.20774 -0.036921 -0.13611 0.13037 0.23608 0.14523 -0.21059 0.45493 -0.29274 0.011668 0.16208 -0.1352 0.037287 -0.53213 -0.10297 -0.018761 0.031512 0.10497 -0.014058 -0.072582 -0.075721 0.2224 0.14043 0.1676 -0.36885 0.20454 
twenty -0.66728 -0.3508 0.30006 0.050174 0.25536 0.39439 -0.19215 -0.018665 0.33377 0.12774 0.11384 0.47728 -0.10551 -0.19981 -0.090622 0.14649 -6.479e-05 0.16378 -0.28894 0.024389 -0.41424 0.32535 -0.14591 0.17209 -0.12103 -0.034767 -0.12746 -0.15992 -0.1168 -0.76154 -0.18092 0.13672 -0.1387 0.27751 -0.48092 0.30228 0.13511 0.44385 0.27544 -0.035216 -0.19955 -0.40206 0.057998 -0.39527 0.75267 -0.2255 0.49701 0.30034 0.027304 -0.17257 0.011003 -0.1843 0.287 0.039212 0.044846 0.061724 -0.33351 0.12296 0.10123 0.20803 -0.65624 0.35313 -0.058059 0.47508 0.18515 -0.14288 -0.62743 -0.19301 0.11506 -0.20361 -0.23203 0.2671 -0.2372 0.032559 0.2025 0.045091 -0.30444 0.55379 -0.19687 -0.062001 -0.33745 0.33332 -0.4368 -0.24679 0.28137 0.025529 0.38849 -1.2575 -0.072723 0.58899 0.43554 -0.2726 -0.20161 -0.31493 0.27001 0.15714 0.050887 -0.090538 -0.51962 -0.37562 
miami -0.81718 -0.11543 0.3247 -0.40668 -0.16942 0.34688 -0.34749 -0.09445 0.21672 0.070747 -0.62574 -0.26811 -0.28764 -0.31933 -0.063345 -0.14892 0.096624 0.32893 -0.14978 -0.041943 -0.11789 0.15308 -0.18169 0.20413 -0.2472 0.19491 0.02265 -0.12192 -0.70419 -0.012143 -0.25123 0.36079 0.11322 0.023848 -0.2841 -0.24373 -0.12602 0.34658 -0.020585 -0.22251 0.03106 0.2699 0.51033 -0.18677 0.74776 -0.21304 0.35283 0.56826 -0.2347 -0.0029379 -0.12287 0.023811 -0.25465 0.37064 0.27547 0.15574 -0.18041 -0.09428 0.10845 -0.10991 -0.34708 0.014428 0.054764 0.32562 -0.19447 0.11647 -0.22233 -0.21568 -0.00019488 -0.18066 0.14582 0.4676 0.1968 0.2479 0.16153 -0.093979 -0.049494 0.09736 0.036598 0.42729 -0.20064 0.52489 -0.36197 -0.082612 0.39082 -0.21663 0.16918 -0.65014 -0.062232 0.31691 0.27601 -0.21086 0.21039 -0.02605 0.23461 0.25475 0.23738 0.22096 -0.56313 -0.45381 
DIGITDIGITDIGITDIGIT -0.19063 -0.10731 0.67924 -0.60675 -0.095758 0.20103 -0.28582 -0.47432 0.19851 -0.23664 -0.73119 0.42711 -0.15392 -0.19667 0.26305 0.40085 -0.10235 0.40042 0.34749 0.24783 -0.12895 -0.50558 -0.14827 -0.13863 -0.15784 -0.0055644 0.28962 0.25892 -0.4405 -0.6024 0.30583 0.18551 0.24089 0.47007 0.090882 0.50812 0.050068 0.47753 0.51303 0.73679 0.31499 0.48724 0.59443 0.024573 1.2554 -0.23001 0.097746 -0.14822 -0.011794 0.0061018 0.95462 0.18418 -0.50027 0.03128 0.35812 0.18415 -0.10539 0.18714 0.062011 0.24435 0.18609 -0.30966 0.57269 0.4217 0.23864 0.39632 -0.13511 0.054784 -0.45388 0.070697 -0.26526 0.065545 -0.46232 -0.1543 0.069502 -0.3875 0.24938 -0.36931 -0.044503 0.26676 -0.48646 0.37391 -0.25708 0.40083 0.32736 -0.69079 -0.10139 -0.30291 -0.62505 0.15256 0.58642 -0.15293 -0.28875 0.41357 -0.055199 0.51344 0.10621 -0.44142 0.10103 -0.53602 
sunday -0.81927 -0.30707 0.40789 -0.36588 0.03805 0.40368 -0.59273 0.043665 0.19086 -0.029922 -0.21606 0.068925 -0.057146 -0.17755 -0.16922 -0.050636 -0.26707 0.21772 0.05418 -0.18425 -0.08658 0.02308 -0.10152 0.17097 -0.025795 0.14958 0.029731 -0.39483 -0.32058 -0.11437 -0.21891 0.17844 -0.086202 0.1214 0.12165 -0.2012 0.06134 0.28274 -0.07817 -0.18957 0.23272 0.078422 0.40776 -0.24057 0.30098 -0.019642 0.30601 0.32264 -0.14424 -0.12426 -0.0023025 0.029203 -0.074316 0.30511 0.15418 0.057623 0.034249 -0.20974 -0.080393 -0.097155 -0.35197 0.12398 -0.15283 -0.0073729 0.0042353 0.099655 -0.39136 -0.16699 -0.070314 -0.19309 0.28565 0.39217 0.17669 0.41008 0.23535 0.086609 0.028124 0.16083 0.06985 0.21667 0.14326 0.54359 -0.21072 -0.2203 0.33855 -0.082795 0.10634 -0.71075 0.035282 0.1553 0.096548 -0.15786 0.22509 -0.16181 0.092977 0.29347 0.34726 -0.041071 -0.55092 -0.1582 
delta -0.27662 -0.1712 0.364 -0.33629 0.020142 0.15628 -0.33477 -0.26554 -0.017045 -0.008484 -0.0086415 0.06415 -0.20651 -0.32622 -0.13517 -0.052939 -0.23557 0.05981 0.080009 -0.13005 -0.36253 0.12733 0.1006 -0.29119 -0.12247 -0.12791 0.038854 0.061546 -0.13142 -0.38697 0.103 0.08991 0.17781 -0.066907 0.018552 0.36997 -0.076874 0.33298 0.037075 0.23727 -0.10319 0.10697 0.017141 -0.034042 0.2678 0.046924 0.16614 -0.037344 0.018129 0.045802 0.14778 0.026448 0.096783 0.073527 -0.12636 0.11778 -0.14681 -0.11623 0.25827 -0.12307 -0.056103 -0.13647 0.17464 0.20803 -0.053045 0.0092466 -0.14957 -0.053432 -0.33268 -0.33122 -0.12533 0.36634 -0.14086 -0.33477 0.28383 -0.0011992 -0.033946 -0.052819 0.14083 0.37936 0.031686 0.00035922 -0.035804 -0.090283 0.23794 0.2087 0.065332 -0.29814 -0.10931 0.12166 0.19834 0.078125 -0.032681 -0.16389 0.19398 0.11755 0.091119 -0.18284 -0.24549 -0.043859 
evening -0.40679 -0.27806 0.37378 0.029498 0.001177 0.13573 -0.39433 0.0031665 0.3112 0.080873 0.02513 0.071416 -0.16818 -0.13266 -0.0072181 -0.0061741 -0.25961 0.14372 -0.037289 -0.021691 -0.020478 0.21199 -0.10943 -0.070525 -0.074224 0.11113 7.0214e-05 -0.27035 0.018697 -0.54481 -0.15426 -0.026405 -0.23318 0.086012 0.019677 -0.02982 -0.036435 0.26691 0.38078 0.16078 0.060744 -0.27647 0.068903 -0.27365 0.19742 -0.018914 0.23937 0.2303 0.0032296 -0.095727 0.38862 -0.063603 0.0036245 0.25627 0.206 -0.0082676 0.029236 0.035681 -0.055979 0.024224 -0.51672 0.25375 -0.20775 0.077437 0.16777 -0.074153 -0.42313 -0.16922 -0.012372 -0.089152 0.1087 0.46809 -0.11426 0.044376 0.21507 0.026123 0.06383 0.40998 -0.062287 0.085721 -0.17299 0.45606 -0.10885 -0.13428 0.20417 0.15484 0.05094 -0.93343 -0.18741 0.27033 0.11611 -0.23099 -0.058279 -0.1893 -0.076082 0.17059 0.40229 -0.15194 -0.74037 -0.044826 
noon -0.51583 -0.40176 0.43164 -0.46941 0.076584 0.36481 -0.34179 -0.31739 0.098138 0.11234 0.098406 0.17274 0.070618 -0.080599 -0.10381 -0.10034 -0.46553 0.07618 0.30268 -0.14471 -0.078279 0.075696 -0.086514 -0.0017077 0.083699 -0.062297 0.14136 -0.31874 0.10942 -0.36243 -0.050041 0.048892 -0.24751 0.066625 0.28028 -0.23182 0.09904 0.37802 0.17903 0.29061 0.17207 0.035779 0.3292 -0.09655 0.32256 -0.017503 0.28545 0.070889 0.13007 -0.043515 0.40336 0.18572 -0.19318 0.27263 0.03095 0.017804 0.097066 -0.038738 0.13263 0.043353 -0.18085 0.10777 -0.025886 0.20961 0.1902 0.0010166 -0.30064 -0.093417 -0.328 0.017475 0.16391 0.38169 0.053674 0.032644 0.16762 -0.11688 0.40096 0.15499 -0.069346 0.22192 0.028447 0.52407 0.024372 0.080265 0.20628 0.068975 0.044732 -0.79062 -0.31079 0.067194 -0.15797 0.044941 -0.033158 -0.17289 -0.063848 0.2796 0.52369 -0.41162 -0.64635 -0.025771 
newark -0.67957 -0.1913 0.39112 -0.28484 0.028019 0.3049 -0.38868 0.074124 0.16363 0.18103 -0.21645 -0.11248 -0.090555 -0.18799 -0.070082 -0.066033 -0.15549 0.14751 -0.0015905 -0.093434 0.099285 0.065889 -0.14976 0.086454 -0.089281 0.13676 0.050333 -0.35781 -0.25372 -0.246 -0.22909 0.12677 -0.15841 0.059465 0.048327 -0.27252 -0.13461 0.22209 0.040527 -0.15032 0.13771 0.12939 0.42432 -0.27302 0.44304 -0.0017088 0.30405 0.43338 -0.12038 -0.0079931 0.12812 0.047337 -0.29993 0.34081 0.31096 0.039209 0.12188 -0.18081 -0.053983 -0.1264 -0.29769 0.17289 -0.11786 0.10809 0.013035 0.0066434 -0.31571 -0.10238 -0.066043 -0.12612 0.16727 0.4832 0.14881 0.26502 0.16321 0.06399 0.10314 0.24491 0.1213 0.2372 0.040304 0.48292 -0.11562 -0.046184 0.19606 -0.040474 0.06602 -0.61951 -0.05246 0.12131 0.049465 -0.097631 0.11509 -0.16021 -0.0084406 0.11171 0.40928 0.031449 -0.52552 -0.24425 
las -0.93936 -0.45726 0.37091 -0.17479 -0.043811 0.025956 -0.29935 0.43112 -0.044045 -0.19577 -0.29872 -0.12685 -0.27281 -0.2122 -0.055657 0.033312 -0.11691 0.48009 -0.19524 -0.0022174 0.20775 0.18877 -0.41041 0.43586 -0.099019 0.16165 -0.058944 -0.69133 -0.421 -0.31128 -0.11189 0.28786 0.1012 -0.16124 0.37379 -0.21717 -0.065856 0.70414 -0.28845 -0.46525 0.36496 0.30747 0.50925 -0.22293 0.18503 -0.099226 0.34712 0.50798 -0.28191 0.057118 -0.092087 0.054062 -0.47751 0.32979 0.25572 0.023354 0.25069 -0.12849 0.10456 -0.5804 -0.46181 0.33859 -0.0064323 0.10307 -0.016307 -0.11225 -0.074033 -0.1069 -0.2003 -0.10714 -0.14976 0.32553 0.11415 0.10757 -0.12359 0.21674 -0.094763 -0.015667 0.28218 0.33289 0.070807 0.4657 -0.43235 0.083156 0.11486 -0.18177 0.11557 -0.75617 -0.0881 0.117 0.19779 -0.31859 0.23966 -0.34093 0.20281 0.43772 0.6813 0.50315 -0.56901 -0.025761 
vegas -0.91655 -0.26059 0.22028 -0.29077 -0.1411 0.20158 -0.38043 0.37434 -0.10586 -0.11559 -0.3823 -0.069667 -0.23698 -0.38046 -0.15136 -0.016877 -0.20941 0.39235 -0.17105 -0.10803 0.24926 0.1701 -0.30548 0.39594 0.042264 0.1244 0.10533 -0.63481 -0.53498 -0.24843 -0.13015 0.32029 -0.062855 -0.072184 0.18435 -0.33298 -0.1992 0.53147 -0.26432 -0.47314 0.32865 0.33394 0.38505 -0.26864 0.24715 -0.14805 0.32539 0.55308 -0.38429 -0.028418 -0.22042 -0.041613 -0.39738 0.26905 0.22724 -0.093097 0.26258 -0.14379 -0.10195 -0.41646 -0.4964 0.18533 -0.042993 0.024134 -0.099926 -0.054159 -0.27681 -0.3522 -0.089976 -0.18028 -0.19146 0.62156 0.078283 0.19687 -0.0045827 0.29773 -0.1306 0.095884 0.45012 0.37992 0.16154 0.49172 -0.43489 -0.03832 0.31172 -0.13671 0.29336 -0.70675 0.028664 -0.026414 0.076896 -0.24231 0.33373 -0.32902 0.15061 0.51289 0.51363 0.50037 -0.66495 -0.17325 
chicago -0.65972 -0.12745 0.57069 -0.30111 0.1867 0.28766 -0.80438 0.0032873 0.11906 0.095518 0.036634 0.016721 -0.074883 -0.14297 -0.010844 -0.078325 -0.41175 0.13285 0.1523 -0.19339 -0.10566 0.0037702 -0.053234 -0.10622 0.015209 0.00026492 -0.1266 -0.31793 -0.13833 -0.54106 -0.28565 0.19962 -0.13843 -0.027382 0.087661 -0.065564 -0.11103 0.20918 0.14016 -0.08747 0.11047 0.052547 0.2667 -0.44987 0.32553 0.28294 0.21723 0.25203 -0.11126 -0.17375 0.33701 -0.11913 -0.027972 0.37741 0.41223 0.22529 -0.042866 -0.16782 -0.18356 -0.08623 -0.37444 0.069725 -0.2401 0.013796 0.18152 0.15168 -0.59665 -0.24824 -0.045934 -0.19133 0.34275 0.41914 -0.043509 0.37348 0.49413 0.16577 0.19843 0.32295 0.056535 0.10669 0.1306 0.42938 0.037454 -0.074475 0.31668 0.17897 -0.0032787 -0.78794 -0.0087705 0.14276 0.024794 -0.25956 0.10178 -0.17757 -0.11555 0.19143 0.41767 -0.39956 -0.67684 -0.20202 
any -0.35802 -0.27338 0.14686 -0.29639 0.018608 0.2142 -0.4095 -0.21762 0.01191 0.18223 -0.058522 -0.1092 -0.11931 -0.30793 -0.23619 -0.10376 -0.17724 -0.13363 0.28725 -0.19436 -0.37722 0.1501 0.10816 -0.15853 0.022096 -0.15497 -0.050681 -0.18002 -0.1587 -0.31531 -0.020718 0.031025 -0.13952 -0.24427 0.23019 0.16937 0.0099784 0.31833 -0.10815 0.088769 -0.030186 0.093808 0.14797 -0.22145 0.20196 0.11321 0.14196 0.15762 -0.0025874 0.13894 0.041453 0.10211 0.085626 0.25286 -0.089113 0.2184 0.018413 -0.30862 0.1402 -0.01833 -0.11817 -0.13375 0.046888 0.18884 0.073246 0.076044 -0.14675 -0.0062009 -0.11427 -0.12747 -0.10994 0.27946 0.22187 0.0081981 0.18428 -0.00036797 0.036054 0.22345 0.10507 0.35316 0.23721 0.18779 -0.034857 -0.18771 0.30232 0.32086 0.1387 -0.44108 0.083782 0.20404 0.16934 0.057771 0.035258 -0.21708 0.32171 0.15472 0.26834 -0.155 -0.36732 0.0020423 
continental -0.44669 -0.21218 0.30957 -0.37111 0.037286 0.30974 -0.6703 -0.32153 0.012481 0.13552 0.16319 0.030501 -0.087537 -0.17005 -0.28107 0.081634 -0.28035 0.22445 -0.066656 -0.098841 -0.26356 0.21085 0.028615 -0.10233 -0.15741 0.0078104 -0.25873 0.0080993 -0.087601 -0.70415 -0.12689 0.078194 0.13181 -0.01481 0.049893 0.11041 0.12833 0.277 0.14993 0.20831 -0.25837 -0.013474 0.063155 -0.07582 0.085867 0.076724 0.030884 0.37293 0.034093 -0.012455 0.36825 -0.16351 0.18848 0.20152 0.14943 0.18106 -0.053048 -0.31204 -0.054418 -0.29607 -0.031273 -0.0072155 -0.099377 0.28549 0.066855 0.053501 -0.26513 0.061662 -0.092277 -0.22348 0.045667 0.14022 -0.20154 -0.1078 0.53807 0.13018 0.057328 0.029646 -0.14926 0.32006 -0.10346 0.20039 0.059652 -0.13145 -0.069021 0.21546 -0.076526 -0.53117 0.10335 0.2778 0.19545 -0.090209 0.056269 -0.31453 0.21916 -0.084974 0.20902 -0.27841 -0.21636 -0.10617 
o'clock -0.46455 -0.33083 0.63205 -0.36079 0.096658 0.24671 -0.45872 -0.42337 0.29918 0.091207 -0.080606 0.1112 -0.078743 -0.044822 -0.036307 -0.18159 -0.36596 0.0030399 0.22769 -0.09332 -0.057798 0.027626 -0.027271 -0.19142 -0.077781 0.056311 0.089932 -0.50351 0.087502 -0.39038 -0.14427 -0.029686 -0.39326 0.092689 0.20973 -0.26459 0.066104 0.43425 0.37808 0.17654 0.086418 -0.034803 0.42012 -0.17889 0.39559 0.038615 0.41169 0.0032159 0.12915 -0.0085533 0.58747 0.13536 -0.18994 0.32627 0.15366 0.04336 -0.046431 0.023483 0.29183 0.0073488 -0.34767 0.11719 -0.04108 0.37737 0.27818 0.034371 -0.28927 0.037806 -0.22884 0.016005 0.40516 0.56845 0.11703 0.043837 0.23804 -0.18877 0.45193 0.27718 -0.18426 0.051337 -0.038162 0.56366 0.062593 -0.010297 0.28041 0.086544 -0.12143 -0.81287 -0.51095 0.20551 -0.15842 -0.00056819 -0.029057 -0.032291 -0.25981 0.12643 0.53803 -0.501 -0.91416 -0.032619 
august -0.20923 -0.20529 0.18182 -0.049497 0.25581 0.22417 -0.10622 -0.37834 0.14622 0.10248 0.20038 0.48916 0.11499 -0.089934 -0.01108 -0.10142 -0.21932 0.11078 -0.083488 0.037103 -0.46728 0.12577 -0.055206 0.15727 -0.13389 -0.13412 -0.013993 -0.14213 -0.060682 -0.65385 -0.022724 0.062241 -0.15249 0.13751 -0.151 0.12078 -0.028931 0.61058 0.50763 0.36814 -0.13483 -0.31865 0.097061 -0.15075 0.60698 -0.16416 0.64987 0.11915 0.099569 0.041817 -0.0023763 0.088595 0.30975 -0.0016295 -0.22838 0.12373 -0.32036 0.09375 0.24491 0.19442 -0.6322 0.13317 -0.078877 0.41987 0.27381 -0.0048871 -0.25534 -0.33669 -0.16292 0.018323 -0.11506 0.26604 -0.058631 -0.079453 0.094611 -0.2213 -0.0090574 0.25247 -0.040057 0.077927 -0.2153 0.36422 -0.010959 0.065779 0.26036 0.07705 0.28692 -1.0508 -0.15643 0.22812 0.14239 -0.17504 -0.09679 -0.11437 0.13704 0.28069 0.15972 -0.28914 -0.62087 -0.074622 
do -0.085936 -0.085081 0.48679 -0.2704 0.32932 0.24848 -0.33874 -0.067785 -0.033225 0.1085 0.024139 0.46284 -0.11311 -0.45845 -0.055133 0.020324 -0.24096 -0.12481 0.23469 0.10026 -0.55846 -0.1504 0.09821 -0.043391 0.023536 -0.16812 0.12598 0.19084 -0.050654 -0.27935 0.21943 -0.10289 -0.059433 0.36979 0.056705 0.62063 0.011993 0.18269 0.090689 0.36399 -0.047696 -0.094893 -0.07173 -0.22206 0.61002 0.0039719 0.31358 -0.039866 0.026035 0.07156 0.024169 -0.19247 0.18775 -0.21022 -0.15209 -0.13799 0.14436 -0.34282 0.37098 0.0055609 -0.085598 0.13655 -0.16487 0.013771 -0.091752 -0.035455 -0.37184 -0.13032 -0.32012 -0.54278 -0.47503 0.63942 -0.17949 -0.22735 0.10372 0.11612 -0.19281 -0.036705 0.12934 0.5075 -0.029134 -0.10994 -0.13044 -0.24049 0.15232 0.25798 0.16531 -0.52615 0.031311 0.020703 0.3671 0.42292 -0.0081773 -0.28542 0.43224 0.20944 0.021363 -0.38109 0.024498 -0.017133 
